/* Generated by Edge Impulse
 *
 * Permission is hereby granted, free of charge, to any person obtaining a copy
 * of this software and associated documentation files (the "Software"), to deal
 * in the Software without restriction, including without limitation the rights
 * to use, copy, modify, merge, publish, distribute, sublicense, and/or sell
 * copies of the Software, and to permit persons to whom the Software is
 * furnished to do so, subject to the following conditions:
 *
 * The above copyright notice and this permission notice shall be included in
 * all copies or substantial portions of the Software.
 *
 * THE SOFTWARE IS PROVIDED "AS IS", WITHOUT WARRANTY OF ANY KIND, EXPRESS OR
 * IMPLIED, INCLUDING BUT NOT LIMITED TO THE WARRANTIES OF MERCHANTABILITY,
 * FITNESS FOR A PARTICULAR PURPOSE AND NONINFRINGEMENT. IN NO EVENT SHALL THE
 * AUTHORS OR COPYRIGHT HOLDERS BE LIABLE FOR ANY CLAIM, DAMAGES OR OTHER
 * LIABILITY, WHETHER IN AN ACTION OF CONTRACT, TORT OR OTHERWISE, ARISING FROM,
 * OUT OF OR IN CONNECTION WITH THE SOFTWARE OR THE USE OR OTHER DEALINGS IN THE
 * SOFTWARE.
 */
// Generated on: 10.09.2022 12:41:51

#include <stdio.h>
#include <stdlib.h>
#include "edge-impulse-sdk/tensorflow/lite/c/builtin_op_data.h"
#include "edge-impulse-sdk/tensorflow/lite/c/common.h"
#include "edge-impulse-sdk/tensorflow/lite/micro/micro_mutable_op_resolver.h"
#include "edge-impulse-sdk/porting/ei_classifier_porting.h"

#if EI_CLASSIFIER_PRINT_STATE
#if defined(__cplusplus) && EI_C_LINKAGE == 1
extern "C" {
    extern void ei_printf(const char *format, ...);
}
#else
extern void ei_printf(const char *format, ...);
#endif
#endif

#if defined __GNUC__
#define ALIGN(X) __attribute__((aligned(X)))
#elif defined _MSC_VER
#define ALIGN(X) __declspec(align(X))
#elif defined __TASKING__
#define ALIGN(X) __align(X)
#endif

#ifndef EI_MAX_SCRATCH_BUFFER_COUNT
#define EI_MAX_SCRATCH_BUFFER_COUNT 30
#endif // EI_MAX_SCRATCH_BUFFER_COUNT

#ifndef EI_MAX_OVERFLOW_BUFFER_COUNT
#define EI_MAX_OVERFLOW_BUFFER_COUNT 10
#endif // EI_MAX_OVERFLOW_BUFFER_COUNT

using namespace tflite;
using namespace tflite::ops;
using namespace tflite::ops::micro;

namespace {

constexpr int kTensorArenaSize = 122880;

#if defined(EI_CLASSIFIER_ALLOCATION_STATIC)
uint8_t tensor_arena[kTensorArenaSize] ALIGN(16);
#elif defined(EI_CLASSIFIER_ALLOCATION_STATIC_HIMAX)
#pragma Bss(".tensor_arena")
uint8_t tensor_arena[kTensorArenaSize] ALIGN(16);
#pragma Bss()
#elif defined(EI_CLASSIFIER_ALLOCATION_STATIC_HIMAX_GNU)
uint8_t tensor_arena[kTensorArenaSize] ALIGN(16) __attribute__((section(".tensor_arena")));
#else
#define EI_CLASSIFIER_ALLOCATION_HEAP 1
uint8_t* tensor_arena = NULL;
#endif

static uint8_t* tensor_boundary;
static uint8_t* current_location;

template <int SZ, class T> struct TfArray {
  int sz; T elem[SZ];
};
enum used_operators_e {
  OP_CONV_2D, OP_DEPTHWISE_CONV_2D, OP_PAD, OP_MEAN, OP_FULLY_CONNECTED, OP_SOFTMAX,  OP_LAST
};
struct TensorInfo_t { // subset of TfLiteTensor used for initialization from constant memory
  TfLiteAllocationType allocation_type;
  TfLiteType type;
  void* data;
  TfLiteIntArray* dims;
  size_t bytes;
  TfLiteQuantization quantization;
};
struct NodeInfo_t { // subset of TfLiteNode used for initialization from constant memory
  struct TfLiteIntArray* inputs;
  struct TfLiteIntArray* outputs;
  void* builtin_data;
  used_operators_e used_op_index;
};

TfLiteContext ctx{};
TfLiteTensor tflTensors[96];
TfLiteEvalTensor tflEvalTensors[96];
TfLiteRegistration registrations[OP_LAST];
TfLiteNode tflNodes[35];

const TfArray<4, int> tensor_dimension0 = { 4, { 1,96,96,1 } };
const TfArray<1, float> quant0_scale = { 1, { 0.0039215688593685627, } };
const TfArray<1, int> quant0_zero = { 1, { -128 } };
const TfLiteAffineQuantization quant0 = { (TfLiteFloatArray*)&quant0_scale, (TfLiteIntArray*)&quant0_zero, 0 };
const ALIGN(16) int32_t tensor_data1[4*2] = { 
  0, 0, 
  0, 1, 
  0, 1, 
  0, 0, 
};
const TfArray<2, int> tensor_dimension1 = { 2, { 4,2 } };
const ALIGN(8) int32_t tensor_data2[2] = { 1, 2, };
const TfArray<1, int> tensor_dimension2 = { 1, { 2 } };
const ALIGN(16) int8_t tensor_data3[8*3*3*1] = { 
  /* [0][0][][] */ 69, 121, 46, 
  /* [0][1][][] */ 20, 41, 9, 
  /* [0][2][][] */ -99, -127, -69, 
  /* [1][0][][] */ 1, 40, 82, 
  /* [1][1][][] */ -2, -65, -127, 
  /* [1][2][][] */ 0, 29, 43, 
  /* [2][0][][] */ -43, 69, -25, 
  /* [2][1][][] */ 82, -127, 47, 
  /* [2][2][][] */ -41, 61, -23, 
  /* [3][0][][] */ 91, 90, 55, 
  /* [3][1][][] */ 9, -1, -7, 
  /* [3][2][][] */ -79, -127, -33, 
  /* [4][0][][] */ 50, 53, 0, 
  /* [4][1][][] */ -105, -127, -2, 
  /* [4][2][][] */ 57, 71, 4, 
  /* [5][0][][] */ -44, 78, -26, 
  /* [5][1][][] */ -90, 127, -45, 
  /* [5][2][][] */ -38, 56, -18, 
  /* [6][0][][] */ 70, 58, 9, 
  /* [6][1][][] */ 127, 95, 16, 
  /* [6][2][][] */ 56, 47, 3, 
  /* [7][0][][] */ 127, 5, -77, 
  /* [7][1][][] */ 113, 10, -69, 
  /* [7][2][][] */ 103, 3, -60, 
};
const TfArray<4, int> tensor_dimension3 = { 4, { 8,3,3,1 } };
const TfArray<8, float> quant3_scale = { 8, { 0.0123654929921031, 0.017237501218914986, 0.015485094860196114, 0.014956180937588215, 0.027324499562382698, 0.0082101700827479362, 0.0018957961583510041, 0.0073856520466506481, } };
const TfArray<8, int> quant3_zero = { 8, { 0,0,0,0,0,0,0,0 } };
const TfLiteAffineQuantization quant3 = { (TfLiteFloatArray*)&quant3_scale, (TfLiteIntArray*)&quant3_zero, 0 };
const ALIGN(16) int32_t tensor_data4[8] = { 15077, 36321, 28607, 3312, -296, 43469, 403739, 69867, };
const TfArray<1, int> tensor_dimension4 = { 1, { 8 } };
const TfArray<8, float> quant4_scale = { 8, { 4.8492132918909192e-05, 6.7598048190120608e-05, 6.0725866205757484e-05, 5.8651694416766986e-05, 0.00010715490498114377, 3.2196749089052901e-05, 7.4344952736282721e-06, 2.8963342629140243e-05, } };
const TfArray<8, int> quant4_zero = { 8, { 0,0,0,0,0,0,0,0 } };
const TfLiteAffineQuantization quant4 = { (TfLiteFloatArray*)&quant4_scale, (TfLiteIntArray*)&quant4_zero, 0 };
const ALIGN(16) int8_t tensor_data5[1*3*3*8] = { 
  /* [0][0][][] */ -120,1,14,5,3,-7,-16,-45, -127,2,13,11,7,7,17,49, -3,-1,8,-5,-2,-1,-1,16, 
  /* [0][1][][] */ 68,-127,28,67,-41,22,-127,103, 91,0,-127,127,-127,127,123,-127, -5,4,13,-24,22,-4,3,-45, 
  /* [0][2][][] */ 17,9,12,-66,4,-7,-10,-50, 13,5,17,-82,15,2,12,60, -1,0,8,0,-1,0,-2,23, 
};
const TfArray<4, int> tensor_dimension5 = { 4, { 1,3,3,8 } };
const TfArray<8, float> quant5_scale = { 8, { 0.0043130908161401749, 0.014704133383929729, 0.021805420517921448, 0.0054557728581130505, 0.0048626256175339222, 0.013613341376185417, 0.015356761403381824, 0.0072519625537097454, } };
const TfArray<8, int> quant5_zero = { 8, { 0,0,0,0,0,0,0,0 } };
const TfLiteAffineQuantization quant5 = { (TfLiteFloatArray*)&quant5_scale, (TfLiteIntArray*)&quant5_zero, 3 };
const ALIGN(16) int32_t tensor_data6[8] = { 8404, 14047, 1217, 2995, 45468, -370, 3087, 24594, };
const TfArray<1, int> tensor_dimension6 = { 1, { 8 } };
const TfArray<8, float> quant6_scale = { 8, { 7.949030987219885e-05, 0.00027099734870716929, 0.00040187416016124189, 0.00010054995800601318, 8.9618246420286596e-05, 0.00025089402333833277, 0.00028302529244683683, 0.00013365375343710184, } };
const TfArray<8, int> quant6_zero = { 8, { 0,0,0,0,0,0,0,0 } };
const TfLiteAffineQuantization quant6 = { (TfLiteFloatArray*)&quant6_scale, (TfLiteIntArray*)&quant6_zero, 0 };
const ALIGN(16) int8_t tensor_data7[16*1*1*8] = { 
  /* [0][0][][] */ -31,-48,-31,-4,34,48,-47,127, 
  /* [1][0][][] */ -10,-69,127,-11,75,4,-1,23, 
  /* [2][0][][] */ -7,-4,-6,8,3,4,127,-3, 
  /* [3][0][][] */ 16,-46,-22,-37,127,4,5,-20, 
  /* [4][0][][] */ -24,-116,-39,-17,127,-12,10,40, 
  /* [5][0][][] */ 127,37,25,-38,-14,5,-25,-44, 
  /* [6][0][][] */ -126,-74,-7,127,-15,-1,3,50, 
  /* [7][0][][] */ 127,32,-28,62,-18,8,-29,-19, 
  /* [8][0][][] */ -18,32,-127,41,-51,-48,4,-51, 
  /* [9][0][][] */ -59,76,42,61,-127,0,-56,23, 
  /* [10][0][][] */ -8,2,0,11,-3,0,0,127, 
  /* [11][0][][] */ 7,-1,1,-12,2,0,2,-127, 
  /* [12][0][][] */ -1,-1,-1,0,1,-9,-127,8, 
  /* [13][0][][] */ -2,-19,-15,4,3,-127,10,-20, 
  /* [14][0][][] */ 1,-9,-21,-4,11,127,-76,25, 
  /* [15][0][][] */ 1,-2,1,3,1,-6,-127,0, 
};
const TfArray<4, int> tensor_dimension7 = { 4, { 16,1,1,8 } };
const TfArray<16, float> quant7_scale = { 16, { 0.011731980368494987, 0.007180224172770977, 0.030741730704903603, 0.028848893940448761, 0.018104325979948044, 0.010979688726365566, 0.024499747902154922, 0.018317027017474174, 0.012553858570754528, 0.0098787136375904083, 0.01580524817109108, 0.015097031369805336, 0.038320984691381454, 0.017114181071519852, 0.019595975056290627, 0.022972336038947105, } };
const TfArray<16, int> quant7_zero = { 16, { 0,0,0,0,0,0,0,0,0,0,0,0,0,0,0,0 } };
const TfLiteAffineQuantization quant7 = { (TfLiteFloatArray*)&quant7_scale, (TfLiteIntArray*)&quant7_zero, 0 };
const ALIGN(16) int32_t tensor_data8[16] = { -20225, -14720, -4369, -18612, -23891, 7055, -3437, 2502, 22491, 21546, -16237, 16267, 4297, 15470, -16068, 6207, };
const TfArray<1, int> tensor_dimension8 = { 1, { 16 } };
const TfArray<16, float> quant8_scale = { 16, { 0.00027604660135693848, 0.00016894645523279905, 0.00072333484422415495, 0.00067879754351451993, 0.00042598415166139603, 0.00025834562256932259, 0.00057646469213068485, 0.00043098887545056641, 0.0002953849034383893, 0.00023244033218361437, 0.00037188819260336459, 0.00035522427060641348, 0.00090167025336995721, 0.00040268662269227207, 0.00046108177048154175, 0.00054052553605288267, } };
const TfArray<16, int> quant8_zero = { 16, { 0,0,0,0,0,0,0,0,0,0,0,0,0,0,0,0 } };
const TfLiteAffineQuantization quant8 = { (TfLiteFloatArray*)&quant8_scale, (TfLiteIntArray*)&quant8_zero, 0 };
const ALIGN(16) int8_t tensor_data9[1*3*3*16] = { 
  /* [0][0][][] */ -46,50,1,-50,56,59,-33,-22,55,59,41,41,-43,78,-76,66, -83,83,-93,-92,70,108,-66,-40,67,102,71,73,-90,87,-86,93, -32,37,-96,-37,31,51,-27,-24,18,47,36,39,-50,16,-24,25, 
  /* [0][1][][] */ -64,76,-22,-74,93,80,-72,-72,93,80,76,71,-60,110,-107,86, -127,127,-127,-127,127,127,-127,-127,127,127,127,127,-127,127,-127,127, -52,56,-119,-58,61,67,-63,-67,42,63,61,66,-71,30,-34,43, 
  /* [0][2][][] */ -30,28,0,-28,45,31,-39,-46,40,31,46,42,-19,39,-38,29, -56,50,-59,-40,79,43,-75,-102,58,51,75,75,-48,42,-46,53, -22,22,-54,-24,32,27,-36,-38,23,25,34,37,-22,7,-13,16, 
};
const TfArray<4, int> tensor_dimension9 = { 4, { 1,3,3,16 } };
const TfArray<16, float> quant9_scale = { 16, { 0.0039923521690070629, 0.0051774187013506889, 0.0018945073243230581, 0.0044013941660523415, 0.0046283118426799774, 0.0032909861765801907, 0.0019880461040884256, 0.0022841899190098047, 0.0037258469965308905, 0.0029283482581377029, 0.0057215746492147446, 0.0056899068877100945, 0.0032117248047143221, 0.0031356308609247208, 0.0026587897446006536, 0.0042711878195405006, } };
const TfArray<16, int> quant9_zero = { 16, { 0,0,0,0,0,0,0,0,0,0,0,0,0,0,0,0 } };
const TfLiteAffineQuantization quant9 = { (TfLiteFloatArray*)&quant9_scale, (TfLiteIntArray*)&quant9_zero, 3 };
const ALIGN(16) int32_t tensor_data10[16] = { 42912, 737, 94191, 27258, 635, 553, 70172, 29193, -1255, 433, 452, 249, 68092, 411, 74103, -118, };
const TfArray<1, int> tensor_dimension10 = { 1, { 16 } };
const TfArray<16, float> quant10_scale = { 16, { 9.3937698693480343e-05, 0.00012182162026874721, 4.4576645450433716e-05, 0.00010356221901020035, 0.00010890145495068282, 7.7434968261513859e-05, 4.6777557145105675e-05, 5.3745647164760157e-05, 8.7666987383272499e-05, 6.8902314524166286e-05, 0.0001346252829534933, 0.00013388016668614, 7.5569994805846363e-05, 7.3779548984020948e-05, 6.2559760408475995e-05, 0.00010049853881355375, } };
const TfArray<16, int> quant10_zero = { 16, { 0,0,0,0,0,0,0,0,0,0,0,0,0,0,0,0 } };
const TfLiteAffineQuantization quant10 = { (TfLiteFloatArray*)&quant10_scale, (TfLiteIntArray*)&quant10_zero, 0 };
const ALIGN(16) int8_t tensor_data11[32*1*1*16] = { 
  /* [0][0][][] */ 7,27,-60,33,-46,37,6,-28,-16,127,21,33,-118,69,-73,-89, 
  /* [1][0][][] */ -24,-41,91,0,12,5,-8,-31,2,15,25,-23,124,-101,127,48, 
  /* [2][0][][] */ -73,24,-19,-38,37,72,127,11,-3,-31,-3,-16,-89,77,-39,-79, 
  /* [3][0][][] */ -67,-127,22,-57,-34,-47,-118,0,20,-90,-25,-108,116,22,43,94, 
  /* [4][0][][] */ 31,-1,-127,-3,6,8,-10,-1,-8,-4,4,-4,47,-8,-6,-9, 
  /* [5][0][][] */ -46,-12,41,-34,51,-14,19,66,43,-63,-65,-40,127,-48,59,79, 
  /* [6][0][][] */ -60,-15,-23,104,31,-14,25,-19,19,63,-127,114,40,14,-3,9, 
  /* [7][0][][] */ 8,1,2,2,-11,29,-24,-6,12,-37,127,-110,31,0,10,29, 
  /* [8][0][][] */ 58,-23,21,81,-127,-5,-24,-4,25,20,60,-11,26,-17,-21,18, 
  /* [9][0][][] */ -61,-108,5,0,43,-72,27,-48,127,-14,37,94,-64,-4,-49,-78, 
  /* [10][0][][] */ -26,-53,8,31,-32,48,-12,-106,-5,127,95,-21,-4,-81,110,-16, 
  /* [11][0][][] */ -16,3,-15,9,-12,6,11,-3,19,0,20,-22,43,15,16,127, 
  /* [12][0][][] */ 27,12,5,-4,11,-2,3,16,-3,-3,14,-5,1,103,-127,-15, 
  /* [13][0][][] */ -52,1,-67,49,38,-45,-47,-8,9,37,-35,5,90,13,26,127, 
  /* [14][0][][] */ 13,-16,-7,0,-15,72,-47,-37,-23,127,30,-9,8,3,1,-10, 
  /* [15][0][][] */ 1,22,-14,35,30,-127,-22,-47,0,21,30,-28,-10,15,-19,-2, 
  /* [16][0][][] */ 17,-17,56,-8,2,33,-36,-5,9,9,9,-16,127,-51,53,72, 
  /* [17][0][][] */ 67,1,16,-110,-49,25,-17,-8,-3,-35,-88,127,26,-35,11,32, 
  /* [18][0][][] */ 40,-11,-6,-57,-41,31,54,33,-11,-16,-119,127,-13,-5,-19,2, 
  /* [19][0][][] */ -15,-44,-33,-41,-1,127,-105,-63,-30,-57,-83,-1,-74,53,-29,-45, 
  /* [20][0][][] */ 9,-2,127,4,1,2,-14,4,18,-12,16,-2,35,-13,-4,96, 
  /* [21][0][][] */ -21,-38,-20,48,54,92,-30,23,-8,17,-101,127,44,12,-28,22, 
  /* [22][0][][] */ -4,8,-127,-4,-7,5,2,-3,0,-1,21,-19,3,-7,1,-86, 
  /* [23][0][][] */ -13,44,-20,11,-6,-36,8,127,14,-99,11,-5,-59,54,-58,-21, 
  /* [24][0][][] */ -52,9,32,-15,127,67,-89,5,58,-19,-34,48,125,-58,54,85, 
  /* [25][0][][] */ 61,8,4,-39,28,-26,7,-5,13,127,-12,-25,19,-30,-12,3, 
  /* [26][0][][] */ -7,-1,-100,-5,-5,20,-6,4,16,-14,38,-50,119,-15,32,127, 
  /* [27][0][][] */ -11,7,44,7,-12,29,-18,7,-19,6,-1,15,65,15,14,-127, 
  /* [28][0][][] */ -31,0,-1,13,2,7,-4,8,2,-3,-35,17,-127,-40,48,-113, 
  /* [29][0][][] */ 6,-2,127,-6,4,12,-5,2,6,-12,-28,26,-42,-15,-7,-17, 
  /* [30][0][][] */ -13,-5,-75,-105,120,-60,-72,45,26,-86,-28,66,-127,11,-44,-32, 
  /* [31][0][][] */ -4,127,24,23,-22,17,-89,25,-50,-65,-27,86,-19,-3,37,-20, 
};
const TfArray<4, int> tensor_dimension11 = { 4, { 32,1,1,16 } };
const TfArray<32, float> quant11_scale = { 32, { 0.0027951467782258987, 0.0029195609968155622, 0.0069935922510921955, 0.0041315606795251369, 0.010841178707778454, 0.0017423066310584545, 0.0027408064343035221, 0.0064043411985039711, 0.0065628099255263805, 0.0018097888678312302, 0.0032845616806298494, 0.0076850969344377518, 0.020579881966114044, 0.0057657808065414429, 0.0041443179361522198, 0.0082062724977731705, 0.0060819420032203197, 0.0022953092120587826, 0.0024452423676848412, 0.0024253432638943195, 0.011242521926760674, 0.0081904511898756027, 0.003681425005197525, 0.0094519928097724915, 0.002774715656414628, 0.011563980951905251, 0.010001592338085175, 0.0072562498971819878, 0.0055837975814938545, 0.0088840173557400703, 0.0028602064121514559, 0.0042465659789741039, } };
const TfArray<32, int> quant11_zero = { 32, { 0,0,0,0,0,0,0,0,0,0,0,0,0,0,0,0,0,0,0,0,0,0,0,0,0,0,0,0,0,0,0,0 } };
const TfLiteAffineQuantization quant11 = { (TfLiteFloatArray*)&quant11_scale, (TfLiteIntArray*)&quant11_zero, 0 };
const ALIGN(16) int32_t tensor_data12[32] = { 62224, -42262, 28469, 5368, 13050, 11947, 7991, 2194, -12927, 57688, -6769, -16311, 26175, -10180, 10151, 17075, -40036, 39127, 27843, 92833, -34906, -6407, 41525, 23283, -5316, -3626, -19657, -11738, 40056, -4825, 87402, 12738, };
const TfArray<1, int> tensor_dimension12 = { 1, { 32 } };
const TfArray<32, float> quant12_scale = { 32, { 5.9178670198889449e-05, 6.1812759668100625e-05, 0.00014806789113208652, 8.7473141320515424e-05, 0.00022952875588089228, 3.6888006434310228e-05, 5.8028181229019538e-05, 0.00013559230137616396, 0.00013894739095121622, 3.8316735299304128e-05, 6.9540532422251999e-05, 0.00016270838386844844, 0.00043571594869717956, 0.00012207274266984314, 8.7743239419069141e-05, 0.0001737426791805774, 0.00012876649270765483, 4.8596142733003944e-05, 5.1770515710813925e-05, 5.1349215937079862e-05, 0.00023802596842870116, 0.00017340770864393562, 7.794289558660239e-05, 0.0002001169923460111, 5.8746103604789823e-05, 0.00024483187007717788, 0.00021175308211240917, 0.00015362886188086122, 0.0001182198102469556, 0.00018809185712598264, 6.055611083866097e-05, 8.9908025984186679e-05, } };
const TfArray<32, int> quant12_zero = { 32, { 0,0,0,0,0,0,0,0,0,0,0,0,0,0,0,0,0,0,0,0,0,0,0,0,0,0,0,0,0,0,0,0 } };
const TfLiteAffineQuantization quant12 = { (TfLiteFloatArray*)&quant12_scale, (TfLiteIntArray*)&quant12_zero, 0 };
const ALIGN(16) int8_t tensor_data13[1*3*3*32] = { 
  /* [0][0][][] */ 1,-28,3,23,-15,7,3,36,-3,-12,17,-2,3,18,20,18,-55,0,-6,-1,-2,-69,-127,7,1,2,17,5,2,-1,-9,-31, -22,-47,-14,50,-18,-28,-26,127,47,-17,16,20,-9,-36,-65,16,100,-47,11,-23,-19,1,98,9,-29,-14,-33,-3,3,-2,5,-50, 1,-16,4,-14,-5,6,4,23,-9,1,16,-13,5,10,17,7,-32,4,2,-1,-2,-34,27,5,7,7,-4,5,3,-7,-10,-5, 
  /* [0][1][][] */ -19,85,6,26,32,-28,-38,0,32,-10,-41,-48,-5,68,83,43,-94,-35,28,-7,25,-104,120,20,12,-8,119,44,-15,127,-21,-38, 127,127,127,127,127,127,-127,-14,127,-127,-127,127,-127,-101,-127,97,127,-127,127,-127,127,127,-97,127,-127,-127,-127,127,-127,-89,127,-127, -29,49,-8,-7,23,-28,8,-17,18,-6,-26,-90,6,12,76,29,-50,-23,4,16,25,-61,-23,15,25,9,49,75,2,-13,-22,-9, 
  /* [0][2][][] */ 0,-53,7,12,-4,6,6,4,-10,-19,15,-2,8,-85,8,-48,-34,1,0,-4,-16,-69,12,9,-9,2,17,6,5,-2,-12,6, -33,-63,-19,-6,-46,-35,-19,11,13,15,22,17,6,127,-58,-127,55,-57,60,14,-22,17,-7,4,-4,2,-26,-12,13,-11,-13,2, 0,-36,-1,2,-9,5,3,-3,-7,-7,14,-5,5,-24,10,-24,-19,9,-7,-1,3,-18,-5,0,-4,5,-14,-12,6,-16,-10,4, 
};
const TfArray<4, int> tensor_dimension13 = { 4, { 1,3,3,32 } };
const TfArray<32, float> quant13_scale = { 32, { 0.022686099633574486, 0.018161218613386154, 0.0096462545916438103, 0.0048782872036099434, 0.010038209147751331, 0.045458748936653137, 0.022100772708654404, 0.0088836280629038811, 0.0068961353972554207, 0.021930363029241562, 0.0101963235065341, 0.010648006573319435, 0.0092365695163607597, 0.014620869420468807, 0.022553134709596634, 0.0092066600918769836, 0.010970250703394413, 0.01344051118940115, 0.015240931883454323, 0.017405884340405464, 0.010669413022696972, 0.0065680202096700668, 0.0228542760014534, 0.0075740166939795017, 0.015051481314003468, 0.0091650141403079033, 0.007803747896105051, 0.0075451042503118515, 0.019408248364925385, 0.012300554662942886, 0.017608786001801491, 0.0071524227969348431, } };
const TfArray<32, int> quant13_zero = { 32, { 0,0,0,0,0,0,0,0,0,0,0,0,0,0,0,0,0,0,0,0,0,0,0,0,0,0,0,0,0,0,0,0 } };
const TfLiteAffineQuantization quant13 = { (TfLiteFloatArray*)&quant13_scale, (TfLiteIntArray*)&quant13_zero, 3 };
const ALIGN(16) int32_t tensor_data14[32] = { 76, -1182, 1369, 439, 2767, -3073, 14478, -3237, -408, 11105, 19449, -138, 13028, 474, 1278, -303, 100, 24706, -8644, 18948, 1281, 5841, 71, 73, 15504, 10242, 104, -1476, 12193, 1580, 2442, 22748, };
const TfArray<1, int> tensor_dimension14 = { 1, { 32 } };
const TfArray<32, float> quant14_scale = { 32, { 0.00053379061864688993, 0.00042732281144708395, 0.00022697070380672812, 0.00011478322994662449, 0.00023619315470568836, 0.0010696176905184984, 0.00052001822041347623, 0.00020902654796373099, 0.00016226201842073351, 0.00051600852748379111, 0.00023991349735297263, 0.00025054134312085807, 0.00021733104949817061, 0.00034402046003378928, 0.00053066201508045197, 0.00021662730432581156, 0.00025812356034293771, 0.00031624731491319835, 0.00035861018113791943, 0.00040955023723654449, 0.00025104501401074231, 0.00015454165986739099, 0.00053774769185110927, 0.00017821215442381799, 0.00035415252204984426, 0.00021564739290624857, 0.00018361759430263191, 0.00017753186693880707, 0.00045666468213312328, 0.00028942481731064618, 0.00041432437137700617, 0.00016829230298753828, } };
const TfArray<32, int> quant14_zero = { 32, { 0,0,0,0,0,0,0,0,0,0,0,0,0,0,0,0,0,0,0,0,0,0,0,0,0,0,0,0,0,0,0,0 } };
const TfLiteAffineQuantization quant14 = { (TfLiteFloatArray*)&quant14_scale, (TfLiteIntArray*)&quant14_zero, 0 };
const ALIGN(16) int8_t tensor_data15[32*1*1*32] = { 
  /* [0][0][][] */ -24,45,11,9,-6,-26,-12,-17,12,35,127,17,24,-36,-15,-23,3,27,-12,-8,-27,-41,-17,-31,55,-21,-2,-46,-62,9,38,76, 
  /* [1][0][][] */ -54,29,18,-32,71,52,-22,25,-23,21,-3,100,60,57,57,21,34,-25,-8,-34,51,25,113,-25,-17,-11,113,-21,-127,53,-47,-16, 
  /* [2][0][][] */ -65,-15,-20,46,44,23,63,26,102,18,-38,29,100,-10,45,13,20,25,64,-51,-11,-6,-8,-65,15,80,-11,-44,-127,14,54,9, 
  /* [3][0][][] */ -82,23,91,-127,10,57,-15,6,-47,5,-14,-7,52,-10,-5,-15,15,-56,-60,-11,36,-24,4,34,-37,-74,5,14,-16,-12,66,-14, 
  /* [4][0][][] */ -26,57,-64,-9,3,-17,46,11,15,16,-127,-45,117,3,-22,17,49,-13,24,27,26,-1,-2,-38,-71,-61,-20,42,-42,-27,-84,8, 
  /* [5][0][][] */ 127,14,-60,36,36,-74,99,-14,-28,-35,19,51,-19,-11,-29,8,-14,-21,11,44,-30,-2,-9,-8,20,-28,10,-21,68,70,18,-14, 
  /* [6][0][][] */ -21,127,38,65,5,18,10,22,-28,-82,93,13,-78,-43,-20,43,5,-52,-9,-127,2,-8,-38,-21,-18,5,22,0,34,14,-29,57, 
  /* [7][0][][] */ 12,-28,-7,-15,-5,-34,-5,-11,12,-7,74,-28,-57,-7,127,12,-9,8,-18,48,10,2,2,21,32,24,5,1,-2,-36,122,-2, 
  /* [8][0][][] */ 11,-6,-36,-1,-10,-10,-66,-71,19,-12,19,4,7,-1,-10,-20,1,15,127,-40,9,16,1,1,-57,9,6,-5,-14,-2,23,-47, 
  /* [9][0][][] */ 127,-13,9,-54,13,-55,10,-26,-111,13,-102,6,10,7,30,-18,4,27,-7,-94,-11,31,0,-25,-124,-55,4,-31,21,-10,-28,25, 
  /* [10][0][][] */ 31,50,-21,-20,-41,-4,65,20,56,7,48,-19,-36,60,-20,33,-14,-21,-2,-57,-49,-36,50,10,-19,31,-33,-7,22,-4,16,-127, 
  /* [11][0][][] */ -127,-19,25,-40,0,95,-36,-22,74,1,99,-30,6,-12,-11,-18,0,-59,-73,-44,53,-14,-2,-17,47,70,-21,19,-79,-41,-43,-36, 
  /* [12][0][][] */ -69,-29,7,77,127,65,23,33,55,19,1,79,93,-41,-46,43,27,15,24,46,75,-107,-20,38,-63,-2,-106,77,54,113,1,29, 
  /* [13][0][][] */ -63,17,-19,-13,-14,85,-51,26,-8,35,38,-60,44,-2,8,-9,3,-11,-12,15,-26,3,6,-31,-18,20,24,28,127,-12,-5,22, 
  /* [14][0][][] */ 5,2,-3,14,52,13,3,-26,5,-13,9,-12,3,6,1,-15,-25,21,-13,2,-127,-10,-5,-9,2,-17,-12,57,-4,-23,9,-8, 
  /* [15][0][][] */ -3,15,5,13,75,-11,12,-15,-4,-19,2,26,-5,2,0,5,-8,20,14,1,-65,-18,9,4,1,9,-2,127,-16,-23,-20,-18, 
  /* [16][0][][] */ -95,-53,80,36,27,56,54,-72,-59,-28,-12,22,-76,-11,-1,-3,73,-58,-43,31,-12,68,4,127,74,1,26,-55,-18,-1,32,-4, 
  /* [17][0][][] */ 55,-94,-127,-17,-11,-46,78,58,-47,-22,-98,-8,32,2,-35,88,8,-37,28,-107,-14,-31,-14,-4,-104,16,7,16,2,-11,-27,26, 
  /* [18][0][][] */ 39,111,76,-18,53,-26,27,31,-16,127,37,50,-9,-103,25,77,49,-33,31,-10,31,-11,-81,-37,34,-24,45,27,33,51,-98,-32, 
  /* [19][0][][] */ 31,-39,59,-25,62,-39,27,10,1,24,31,65,-36,8,74,-127,-34,35,27,57,-19,0,-11,-51,15,33,-52,-28,25,106,103,31, 
  /* [20][0][][] */ 91,4,24,1,21,-30,9,127,-40,4,-54,1,0,-24,10,42,3,19,124,19,6,11,12,-5,-44,-7,-1,-4,5,-4,-3,38, 
  /* [21][0][][] */ -127,-35,17,-40,-5,103,-7,-2,22,9,-40,-9,10,-10,19,-15,33,-21,-32,35,-6,-30,0,-6,49,18,-7,1,8,-8,-25,-21, 
  /* [22][0][][] */ -56,-28,-1,49,-41,36,58,-12,-97,65,-57,-10,15,21,60,36,36,-80,52,-47,-42,-17,40,-24,-21,-127,-15,35,82,-7,-39,95, 
  /* [23][0][][] */ 22,-21,-81,46,31,-5,3,-102,38,22,54,20,5,-23,43,21,59,127,-32,-54,20,22,-16,16,-6,-18,43,-6,-15,-38,34,-32, 
  /* [24][0][][] */ 15,-10,-26,10,-127,26,4,-15,-2,11,10,-26,2,-5,-5,-21,-23,31,-9,-3,86,-6,-11,-17,20,-14,-47,-77,0,35,30,14, 
  /* [25][0][][] */ 10,-4,24,57,2,-34,-55,45,49,-29,-17,21,-71,-9,20,41,62,18,5,-94,-6,-28,11,-99,127,-37,9,-3,55,21,-34,73, 
  /* [26][0][][] */ 10,19,28,-8,23,-14,126,83,-7,6,-35,-1,-8,4,10,19,-1,127,-56,32,-24,31,-5,-15,7,-15,-1,-8,29,10,-16,41, 
  /* [27][0][][] */ -89,-9,93,15,-4,52,-35,99,54,26,28,-11,-16,-19,-1,49,15,23,127,75,14,-4,27,-13,41,60,-10,7,-34,-26,-28,53, 
  /* [28][0][][] */ -76,26,-55,5,-50,35,2,-20,31,21,-3,-15,-9,-15,20,33,-20,-23,-127,38,-19,-81,20,55,39,-11,-32,23,16,33,-11,-10, 
  /* [29][0][][] */ 94,-35,46,-54,31,-72,23,5,0,-74,58,26,-122,16,27,-23,48,127,-26,60,-6,50,6,-24,89,-16,26,-49,15,28,-14,-126, 
  /* [30][0][][] */ -91,127,-16,-6,-38,7,-15,33,40,4,-26,-32,9,6,29,2,-85,-36,-6,-1,15,-17,12,-102,-27,0,-26,56,-3,8,-3,0, 
  /* [31][0][][] */ 127,16,29,-50,-9,-57,1,-20,-40,-13,71,3,-30,-2,-12,-1,-6,20,-8,18,-14,20,3,-49,-75,-20,9,-24,-2,-8,-48,10, 
};
const TfArray<4, int> tensor_dimension15 = { 4, { 32,1,1,32 } };
const TfArray<32, float> quant15_scale = { 32, { 0.0078082545660436153, 0.0023105049040168524, 0.0058031799271702766, 0.0084630222991108894, 0.004162137396633625, 0.0044392556883394718, 0.0027248137630522251, 0.0053664720617234707, 0.0065087564289569855, 0.0045877955853939056, 0.0035974248312413692, 0.0065827099606394768, 0.0042957342229783535, 0.0061593442223966122, 0.008303825743496418, 0.0041859783232212067, 0.0022599222138524055, 0.0049731559120118618, 0.0021693026646971703, 0.0039916806854307652, 0.0062018097378313541, 0.0081104645505547523, 0.0015187144745141268, 0.007132580503821373, 0.0070669674314558506, 0.0027378110680729151, 0.0058573153801262379, 0.0060843275859951973, 0.0058650271967053413, 0.0012420876882970333, 0.004948692861944437, 0.0080657936632633209, } };
const TfArray<32, int> quant15_zero = { 32, { 0,0,0,0,0,0,0,0,0,0,0,0,0,0,0,0,0,0,0,0,0,0,0,0,0,0,0,0,0,0,0,0 } };
const TfLiteAffineQuantization quant15 = { (TfLiteFloatArray*)&quant15_scale, (TfLiteIntArray*)&quant15_zero, 0 };
const ALIGN(16) int32_t tensor_data16[32] = { -21225, 43507, 8557, 8597, 29208, -24286, 24063, -28743, 17392, 40530, 20314, 12878, -38559, -26059, 1739, 10880, 11137, 42421, 14017, -42094, -16250, 7602, 41289, 6479, -829, 18656, -25939, -34692, 10664, 21319, 16421, -3639, };
const TfArray<1, int> tensor_dimension16 = { 1, { 32 } };
const TfArray<32, float> quant16_scale = { 32, { 0.00016858841991052032, 4.9886228225659579e-05, 0.00012529674859251827, 0.0001827255473472178, 8.9864915935322642e-05, 9.584819053998217e-05, 5.8831592468777671e-05, 0.00011586776963667944, 0.00014053088671062142, 9.9055323516950011e-05, 7.7672179031651467e-05, 0.00014212762471288443, 9.2749411123804748e-05, 0.00013298670819494873, 0.00017928832676261663, 9.0379668108653277e-05, 4.8794096073834226e-05, 0.0001073756575351581, 4.6837521949782968e-05, 8.6184576503001153e-05, 0.00013390358071774244, 0.00017511345504317433, 3.2790641853353009e-05, 0.00015399990661535412, 0.00015258324856404215, 5.9112218877999112e-05, 0.00012646558752749115, 0.00013136702182237059, 0.00012663210509344935, 2.6817977413884364e-05, 0.00010684748122002929, 0.00017414895410183817, } };
const TfArray<32, int> quant16_zero = { 32, { 0,0,0,0,0,0,0,0,0,0,0,0,0,0,0,0,0,0,0,0,0,0,0,0,0,0,0,0,0,0,0,0 } };
const TfLiteAffineQuantization quant16 = { (TfLiteFloatArray*)&quant16_scale, (TfLiteIntArray*)&quant16_zero, 0 };
const ALIGN(16) int8_t tensor_data17[1*3*3*32] = { 
  /* [0][0][][] */ 56,-50,75,68,67,-72,-74,-77,90,76,-53,-61,63,78,69,74,102,-83,-64,77,74,-61,-80,-48,58,73,72,-56,-73,-96,-63,60, 83,-80,97,102,94,-97,-89,-101,111,94,-78,-91,90,102,91,19,127,-103,-90,108,96,-98,-107,-78,102,101,98,-77,-96,11,-80,90, 24,-41,34,41,35,-35,-32,-41,48,35,-33,-36,41,40,49,-84,69,-39,-38,43,35,-49,-47,-33,55,41,41,-29,-26,74,-27,36, 
  /* [0][1][][] */ 87,-72,102,77,86,-92,-100,-98,88,100,-81,-87,93,99,82,87,-19,-95,-89,86,93,-82,-78,-78,96,94,91,-90,-102,-127,-92,89, 127,-127,127,127,127,-127,-127,-127,127,127,-127,-127,127,127,127,37,-16,-127,-127,127,127,-127,-127,-127,127,127,127,-127,-127,12,-127,127, 52,-69,48,61,48,-46,-52,-42,64,47,-63,-48,54,59,71,-127,-9,-61,-54,52,43,-61,-52,-55,64,52,62,-54,-39,95,-40,51, 
  /* [0][2][][] */ 39,-30,48,19,31,-36,-51,-46,33,37,-35,-37,43,44,27,41,-78,-38,-38,25,31,-29,-28,-36,52,44,52,-37,-44,-66,-48,39, 57,-58,58,46,49,-48,-64,-56,57,53,-55,-52,56,51,59,28,-94,-53,-53,42,45,-52,-47,-66,47,57,80,-57,-59,7,-62,53, 29,-36,12,21,20,-12,-23,-20,33,15,-31,-21,23,22,28,-67,-57,-27,-25,16,13,-22,-12,-27,12,26,33,-25,-22,46,-26,15, 
};
const TfArray<4, int> tensor_dimension17 = { 4, { 1,3,3,32 } };
const TfArray<32, float> quant17_scale = { 32, { 0.003752618096768856, 0.0043305391445755959, 0.0024265774991363287, 0.0033759346697479486, 0.0039255078881978989, 0.0041404999792575836, 0.0040266597643494606, 0.0027874938677996397, 0.0021506710909307003, 0.0036470363847911358, 0.0036147064529359341, 0.0035654990933835506, 0.0029881168156862259, 0.0060142274014651775, 0.0041340012103319168, 0.0067720832303166389, 0.0064220749773085117, 0.004103971179574728, 0.0050759855657815933, 0.0046317791566252708, 0.00397514458745718, 0.003725867485627532, 0.0055008754134178162, 0.00269748130813241, 0.0036218937020748854, 0.0035499727819114923, 0.0024097498971968889, 0.0038279339205473661, 0.0026666212361305952, 0.012791491113603115, 0.0029763216152787209, 0.0049999328330159187, } };
const TfArray<32, int> quant17_zero = { 32, { 0,0,0,0,0,0,0,0,0,0,0,0,0,0,0,0,0,0,0,0,0,0,0,0,0,0,0,0,0,0,0,0 } };
const TfLiteAffineQuantization quant17 = { (TfLiteFloatArray*)&quant17_scale, (TfLiteIntArray*)&quant17_zero, 3 };
const ALIGN(16) int32_t tensor_data18[32] = { 540, 73920, -834, 262, 312, 50432, 82242, 69060, 1602, 1093, 77475, 47521, 925, 392, 1085, -247, -1996, 20178, 77593, 80, 709, 43421, 54194, 67475, -389, -5519, 6337, 49509, 57954, 1413, 67290, 664, };
const TfArray<1, int> tensor_dimension18 = { 1, { 32 } };
const TfArray<32, float> quant18_scale = { 32, { 7.1912305429577827e-05, 8.2987142377533019e-05, 4.6501078031724319e-05, 6.4693835156504065e-05, 7.5225434557069093e-05, 7.934538007248193e-05, 7.7163829701021314e-05, 5.3417403250932693e-05, 4.1213817894458771e-05, 6.9889021688140929e-05, 6.926947389729321e-05, 6.8326502514537424e-05, 5.7261986512457952e-05, 0.0001152520562754944, 7.9220837505999953e-05, 0.00012977502774447203, 0.00012306774442549795, 7.8645367466378957e-05, 9.7272306447848678e-05, 8.8759879872668535e-05, 7.6176635047886521e-05, 7.1399677835870534e-05, 0.00010541457595536485, 5.1692470151465386e-05, 6.9407200498972088e-05, 6.8028966779820621e-05, 4.6178607590263709e-05, 7.3355600761715323e-05, 5.1101091230520979e-05, 0.00024512637173756957, 5.7035955251194537e-05, 9.5814895757939667e-05, } };
const TfArray<32, int> quant18_zero = { 32, { 0,0,0,0,0,0,0,0,0,0,0,0,0,0,0,0,0,0,0,0,0,0,0,0,0,0,0,0,0,0,0,0 } };
const TfLiteAffineQuantization quant18 = { (TfLiteFloatArray*)&quant18_scale, (TfLiteIntArray*)&quant18_zero, 0 };
const ALIGN(16) int8_t tensor_data19[64*1*1*32] = { 
  /* [0][0][][] */ -127,-84,-10,-1,-39,-34,-13,-6,7,-117,-54,0,-38,-45,35,-7,36,102,59,-5,-7,22,60,28,51,1,21,-54,-32,-19,59,85, 
  /* [1][0][][] */ -24,-33,-35,-88,-28,44,127,10,52,-26,-84,-54,-83,-59,58,-31,-49,-1,-34,-1,-73,-127,64,78,39,96,41,8,-89,19,92,31, 
  /* [2][0][][] */ -99,104,63,80,46,-127,-104,87,15,-5,3,-47,-99,0,68,2,-61,-45,-84,115,13,-102,-73,10,58,-94,-25,70,50,26,-5,-7, 
  /* [3][0][][] */ 59,-127,-22,14,51,-35,-72,-56,4,-9,55,9,23,-53,-85,-5,0,-11,-53,86,-42,-17,65,-39,-99,-21,-15,23,15,46,46,9, 
  /* [4][0][][] */ 8,-8,-6,4,11,-5,-2,26,5,-17,17,-16,-7,3,-3,6,-1,-3,-4,8,16,7,-7,-23,-4,-25,3,-20,-21,-8,-2,-127, 
  /* [5][0][][] */ -34,-5,94,-18,-44,2,-38,-90,-31,106,-104,57,70,33,-106,-68,-127,-107,49,-86,56,-86,-104,-68,-94,20,26,-89,-22,-3,59,-103, 
  /* [6][0][][] */ 5,127,2,-4,-20,25,-42,-23,1,11,60,-25,3,-21,-3,-20,-14,-18,-73,-23,1,1,-13,-53,-11,32,4,23,6,-9,-12,1, 
  /* [7][0][][] */ -22,30,0,-15,11,26,32,72,77,8,-15,-13,42,71,-5,-16,-25,-20,30,-10,-10,11,-60,21,-2,-21,-127,-14,-26,-37,-48,21, 
  /* [8][0][][] */ 2,-52,-18,21,12,-66,-44,-10,-52,21,10,16,-10,43,11,0,22,-60,4,20,51,-44,-27,5,14,-69,127,-6,39,22,-12,-2, 
  /* [9][0][][] */ -18,-23,38,52,11,-26,-49,-22,-42,-10,45,36,27,28,-4,1,12,6,29,-6,28,-25,-65,7,6,-127,-2,-18,-5,5,-10,-18, 
  /* [10][0][][] */ -1,0,24,22,-6,-16,-12,-17,127,56,-1,36,20,16,12,15,9,7,-10,-18,32,-8,45,8,5,19,20,-14,-21,0,6,-14, 
  /* [11][0][][] */ 14,20,-7,4,5,5,-5,3,3,9,-10,-14,-7,-16,-124,26,5,4,9,9,-9,-3,7,-31,127,-3,3,1,21,11,-22,2, 
  /* [12][0][][] */ 0,19,-12,7,7,0,5,11,1,5,-17,-6,-5,-3,-127,25,-5,3,21,5,-25,-2,1,-43,90,1,4,4,6,3,-22,2, 
  /* [13][0][][] */ 1,6,17,0,1,-21,6,-10,127,9,-10,3,-3,-9,9,5,-2,4,-12,10,-13,6,6,9,12,29,-65,-7,17,-2,7,-9, 
  /* [14][0][][] */ -43,-79,81,-1,-127,-9,103,127,13,18,35,32,-48,10,44,-9,-93,-2,11,33,-17,-11,0,-45,44,-4,-10,-9,-23,22,-87,23, 
  /* [15][0][][] */ 36,13,99,48,-4,-79,48,-64,-13,98,-45,106,38,109,17,37,-34,-61,27,29,83,30,71,-56,9,52,127,-60,-1,10,-36,64, 
  /* [16][0][][] */ 25,-22,4,13,-14,-14,-74,19,-40,-26,13,1,34,44,-8,23,16,11,35,10,20,-7,-46,-3,3,-127,-40,-13,-10,0,15,-11, 
  /* [17][0][][] */ 9,27,-37,-27,-19,-1,127,47,-10,-25,16,-29,-38,-13,1,-14,0,13,-56,0,-29,-2,-14,13,1,-15,7,-10,17,7,-47,-26, 
  /* [18][0][][] */ 7,110,15,-20,31,127,11,73,11,-4,111,-16,6,37,-55,19,-20,-2,-2,20,-54,-15,-34,-37,-83,32,-126,76,-35,38,7,-44, 
  /* [19][0][][] */ -24,15,-10,-21,-56,-1,83,-35,4,-1,-67,51,-60,-59,9,32,-7,19,-41,18,-49,-38,120,8,14,127,105,7,-2,104,110,49, 
  /* [20][0][][] */ -40,-53,127,-14,1,-34,-43,60,-63,-21,-40,-26,-37,-73,56,6,-7,-44,5,0,16,47,-11,-3,70,-68,22,-6,-6,-16,11,-21, 
  /* [21][0][][] */ -72,-21,17,-2,-24,-32,124,115,-3,8,15,-49,52,47,38,0,-6,-24,43,-67,11,29,-45,32,40,-60,22,-14,-10,-23,-127,9, 
  /* [22][0][][] */ -12,-97,17,-5,39,-13,68,48,-1,-18,-103,19,4,14,10,7,5,4,51,20,21,-15,16,68,20,-127,-4,-11,9,-8,53,-9, 
  /* [23][0][][] */ 19,-14,78,-55,79,5,12,58,10,-50,127,-35,31,54,1,18,-31,-94,64,18,-45,18,-54,-3,3,98,26,27,22,21,-65,59, 
  /* [24][0][][] */ -8,-7,-20,53,-14,13,-63,46,67,92,-5,37,-5,7,9,15,80,21,-32,22,-13,25,20,13,3,-6,-10,-127,-53,-11,-77,-3, 
  /* [25][0][][] */ -10,-3,39,-5,127,34,22,-12,24,-14,54,-25,0,-17,-39,-18,22,-29,23,24,10,5,-42,-5,-36,10,0,-5,-49,1,-21,19, 
  /* [26][0][][] */ 60,19,-37,-5,30,25,-48,127,0,84,-70,-27,-40,-29,34,19,44,-75,-19,21,53,30,-30,1,33,-26,-5,-1,-32,0,64,-66, 
  /* [27][0][][] */ -1,-37,-24,21,-44,2,21,-56,127,96,19,-3,55,-54,-42,5,5,-9,-5,-70,-61,-18,-7,26,-43,25,-92,15,74,15,-18,43, 
  /* [28][0][][] */ 13,-4,28,-16,-4,127,-31,34,17,31,15,1,-11,-9,-7,2,3,7,-11,21,-8,-19,49,8,-6,-15,-17,6,-56,-13,22,52, 
  /* [29][0][][] */ -30,-6,28,9,-5,-22,68,30,-5,-23,-38,16,6,-3,7,1,16,-2,0,-5,17,-13,-8,27,15,-127,-4,-3,4,3,-18,14, 
  /* [30][0][][] */ 97,-91,54,16,-36,-11,12,48,65,-50,98,127,-32,-54,-56,40,-5,2,-38,39,-7,68,28,21,-61,79,-29,55,-59,-99,54,-7, 
  /* [31][0][][] */ 11,5,87,-1,-85,55,-46,80,15,-18,-3,-65,37,-26,-29,3,21,-37,-45,-50,52,19,36,-127,-29,-49,-42,81,-69,8,-4,-13, 
  /* [32][0][][] */ -33,-31,-24,-18,3,59,19,-10,6,14,-26,127,48,67,-2,-38,21,-29,-34,13,18,2,74,-14,0,-6,85,17,85,22,16,-9, 
  /* [33][0][][] */ 70,-8,12,-39,-14,-112,17,-49,9,58,74,10,-22,58,37,5,28,-9,16,-9,54,-69,-33,-22,29,-35,10,-52,-34,-12,-27,127, 
  /* [34][0][][] */ -15,-46,-4,8,52,-73,64,16,50,-80,12,74,52,127,-6,49,-1,2,-24,8,-48,-33,58,-11,4,58,-55,-28,42,72,60,-42, 
  /* [35][0][][] */ -2,-47,52,4,1,-24,-127,9,2,-13,14,30,20,9,7,0,6,-5,113,3,34,2,-5,-24,14,23,-2,1,12,8,-22,-13, 
  /* [36][0][][] */ 33,127,4,-8,-33,16,-54,62,12,19,-53,-43,-23,-18,-5,-41,-32,12,-30,40,-14,58,-76,-53,-17,-64,-4,-123,-36,-46,0,-33, 
  /* [37][0][][] */ -14,-18,-20,10,18,-9,-16,0,127,-3,-20,-23,-8,26,14,-7,-19,-10,23,-17,22,35,-45,-24,7,32,-99,5,-16,-2,1,2, 
  /* [38][0][][] */ 4,12,-15,36,50,32,75,-30,7,-7,-44,14,29,18,-38,0,18,31,-127,18,-10,88,-62,-55,-33,-68,-1,-17,-56,-5,36,54, 
  /* [39][0][][] */ 86,50,-12,-19,37,15,-127,55,82,38,55,17,-53,44,-39,20,50,30,20,95,13,-62,12,-95,-33,87,25,-4,-7,83,97,-45, 
  /* [40][0][][] */ 34,-38,14,-5,-36,4,26,-7,6,2,127,-23,-1,-36,48,8,3,-6,-77,12,-18,17,13,9,36,-23,5,-9,14,3,23,-11, 
  /* [41][0][][] */ -5,39,-16,-9,69,-52,-9,15,15,55,-36,-53,16,-49,37,-2,-23,-2,-65,-8,22,-27,127,-24,26,-1,-19,-7,13,0,95,-55, 
  /* [42][0][][] */ -6,-57,-26,45,-60,52,-15,-31,-76,30,2,127,51,46,24,1,-34,-10,-8,-58,-13,-48,46,22,21,-1,62,32,36,-28,-17,-4, 
  /* [43][0][][] */ 62,-2,-6,-7,16,11,-127,-37,-77,-27,69,-11,2,-42,-62,-10,34,20,40,-17,-13,-5,-62,24,-68,-35,-89,20,-15,19,70,12, 
  /* [44][0][][] */ -22,-75,-83,2,-39,38,-7,23,8,-24,33,-12,81,-36,120,21,-5,19,-38,7,7,14,-61,-17,127,27,-5,-29,-22,12,37,0, 
  /* [45][0][][] */ 4,-15,36,17,-20,-97,20,-5,-40,-16,-35,-42,-20,-6,-32,18,-6,-51,-22,-31,-25,29,-34,-41,-22,127,37,35,115,5,-22,-10, 
  /* [46][0][][] */ -4,16,-23,8,-6,-9,9,17,-79,12,2,-7,-11,-3,-8,21,-2,19,25,2,-18,4,40,-97,3,0,127,27,-6,-8,-8,-11, 
  /* [47][0][][] */ 16,24,100,37,-127,-104,23,36,-18,49,42,25,-2,-37,-34,20,44,-23,-70,-112,-10,-38,52,6,-40,99,59,71,16,10,-22,-34, 
  /* [48][0][][] */ 0,-7,5,7,-8,15,-5,-3,127,27,4,25,11,9,0,6,-2,-2,1,9,18,-1,24,0,2,17,-38,2,-47,1,9,10, 
  /* [49][0][][] */ -3,0,9,12,6,-14,-4,-7,-50,-6,6,14,3,3,-3,-1,4,19,9,8,-5,-5,12,-40,-5,-2,127,7,10,0,-3,-4, 
  /* [50][0][][] */ 73,-7,-2,-127,-34,-112,13,10,-50,-106,21,52,5,-25,19,-5,53,60,-23,-55,-73,-21,-44,-37,30,-99,48,-10,-74,-15,19,-107, 
  /* [51][0][][] */ -1,-10,-12,-27,-32,23,18,-24,-9,8,0,-14,30,-14,-8,127,-18,-2,-7,63,15,-26,-28,18,-10,-27,10,-1,10,41,-31,-4, 
  /* [52][0][][] */ -48,125,22,-24,-34,69,30,-73,20,18,127,-73,102,65,36,16,-10,10,-61,4,-5,59,-32,-4,39,-63,28,4,16,-54,-98,26, 
  /* [53][0][][] */ 9,-7,-31,6,-22,-17,4,-26,91,-71,15,-28,-4,-7,22,3,-8,33,14,-39,127,22,-38,-24,11,8,-56,96,-1,-16,-32,-17, 
  /* [54][0][][] */ 10,34,-56,-64,127,11,-35,16,7,44,-22,29,-10,2,30,-35,50,-125,-60,-4,-83,-30,81,31,18,-26,4,80,51,-45,101,13, 
  /* [55][0][][] */ 18,-42,-58,-70,-41,-22,-15,69,-12,14,127,-92,69,-19,-48,4,7,43,13,-34,-24,-73,-44,-9,-55,-1,44,-54,24,-23,-72,18, 
  /* [56][0][][] */ 19,68,20,8,93,26,1,-13,-9,89,52,-29,48,13,-73,-1,35,-26,2,-25,5,76,-29,-26,-78,127,29,23,-17,-8,-104,-7, 
  /* [57][0][][] */ -40,-19,12,45,-37,29,4,-78,31,-48,12,-5,-21,-45,-29,10,-10,127,-9,31,1,-47,50,4,-29,-26,-51,0,15,20,47,-21, 
  /* [58][0][][] */ -20,86,-3,91,62,-18,75,-50,-9,-49,52,31,38,14,11,17,13,18,-66,-13,-58,55,12,68,8,2,15,-55,0,2,10,127, 
  /* [59][0][][] */ 10,1,-28,127,62,-86,39,24,-40,-3,11,-51,-2,-26,-5,-5,4,18,42,35,14,22,-55,-8,-2,-52,37,-23,20,19,72,38, 
  /* [60][0][][] */ 23,-22,-24,-9,-5,5,-77,-42,25,-22,3,13,-18,-29,-8,7,1,23,-4,28,-37,-41,15,2,-13,13,-5,-4,6,15,127,22, 
  /* [61][0][][] */ -6,40,44,35,10,35,25,61,9,-107,45,50,-32,-2,22,-7,-48,16,65,46,-45,84,9,49,24,91,2,5,-3,68,73,127, 
  /* [62][0][][] */ 3,-2,74,19,41,-44,11,-95,-51,31,28,-22,-24,-82,99,8,33,8,-26,-76,-127,12,31,119,96,-52,21,-98,110,2,-9,-35, 
  /* [63][0][][] */ -13,4,-13,14,12,-1,1,-15,127,1,-6,-10,10,3,-35,22,-12,-1,4,-10,-10,-3,-16,-8,32,-5,-95,-5,31,13,-3,-7, 
};
const TfArray<4, int> tensor_dimension19 = { 4, { 64,1,1,32 } };
const TfArray<64, float> quant19_scale = { 64, { 0.0031257155351340771, 0.0012051798403263092, 0.001253476832062006, 0.001968085765838623, 0.0077744345180690289, 0.0019651756156235933, 0.0084684863686561584, 0.0016581217059865594, 0.0012744892155751586, 0.0016725874738767743, 0.0043908329680562019, 0.0033023732248693705, 0.0047495784237980843, 0.0033533503301441669, 0.0049068871885538101, 0.0016853663837537169, 0.0015518744476139545, 0.0035425957757979631, 0.0010073427110910416, 0.0011738557368516922, 0.0032664395403116941, 0.0015054505784064531, 0.0048306668177247047, 0.0041335192508995533, 0.0019422912737354636, 0.0029115870129317045, 0.0059056291356682777, 0.0018281872617080808, 0.01187122892588377, 0.0091743310913443565, 0.002626823028549552, 0.0024802577681839466, 0.0078311217948794365, 0.001580773969180882, 0.0028572375886142254, 0.0061289481818675995, 0.0023086720611900091, 0.0031813047826290131, 0.0039747906848788261, 0.0020284214988350868, 0.0044231158681213856, 0.0048200767487287521, 0.003019548486918211, 0.0015942923491820693, 0.0021464796736836433, 0.0026676391717046499, 0.0035920396912842989, 0.0042979852296411991, 0.0060393009334802628, 0.0046648727729916573, 0.0025944404769688845, 0.0048720706254243851, 0.0039095180109143257, 0.0038001819048076868, 0.0021176873706281185, 0.0019573732279241085, 0.0026544141583144665, 0.0034931227564811707, 0.004513532854616642, 0.0044904309324920177, 0.0032910502050071955, 0.0020800742786377668, 0.0017333267023786902, 0.0027737203054130077, } };
const TfArray<64, int> quant19_zero = { 64, { 0,0,0,0,0,0,0,0,0,0,0,0,0,0,0,0,0,0,0,0,0,0,0,0,0,0,0,0,0,0,0,0,0,0,0,0,0,0,0,0,0,0,0,0,0,0,0,0,0,0,0,0,0,0,0,0,0,0,0,0,0,0,0,0 } };
const TfLiteAffineQuantization quant19 = { (TfLiteFloatArray*)&quant19_scale, (TfLiteIntArray*)&quant19_zero, 0 };
const ALIGN(16) int32_t tensor_data20[64] = { 25055, 43317, 77383, 56378, 10264, 80328, -71, 24299, 80926, 51535, -1826, 16522, 13280, 11123, -1098, 6609, 55624, 16674, 16193, 13145, 33088, 37531, 4972, -35829, 53910, 8464, -7448, 27122, -24066, 5217, -28009, 36647, -33724, 55955, -344, -250, 54173, 22864, 29964, -2257, 477, 4707, 3778, 52027, 26622, 32420, 14724, 365, -5633, 8998, 62225, 19970, -20187, 17266, 2922, 52880, -8900, 21879, -19655, 4224, 20920, -57587, 41792, 19725, };
const TfArray<1, int> tensor_dimension20 = { 1, { 64 } };
const TfArray<64, float> quant20_scale = { 64, { 6.3856488850433379e-05, 2.462110023770947e-05, 2.5607778297853656e-05, 4.0206810808740556e-05, 0.00015882702427916229, 4.0147355321096256e-05, 0.00017300609033554792, 3.3874428481794894e-05, 2.6037048883154057e-05, 3.4169956052210182e-05, 8.9702080003917217e-05, 6.7465502070263028e-05, 9.7031035693362355e-05, 6.8506931711453944e-05, 0.00010024475341197103, 3.443102104938589e-05, 3.1703861168352887e-05, 7.2373099101241678e-05, 2.0579405827447772e-05, 2.3981167032616213e-05, 6.6731394326779991e-05, 3.0755451007280499e-05, 9.8687618447002023e-05, 8.4445317042991519e-05, 3.9679842302575707e-05, 5.9481972130015492e-05, 0.00012064845213899389, 3.7348767364164814e-05, 0.00024252207367680967, 0.00018742606334853917, 5.3664414735976607e-05, 5.0670176278799772e-05, 0.00015998510934878141, 3.2294261472998187e-05, 5.8371646446175873e-05, 0.00012521073222160339, 4.7164783609332517e-05, 6.4992142142727971e-05, 8.1202582805417478e-05, 4.143943078815937e-05, 9.036160190589726e-05, 9.8471267847344279e-05, 6.1687562265433371e-05, 3.2570434996159747e-05, 4.3851290683960542e-05, 5.4498264944413677e-05, 7.3383213020861149e-05, 8.7805252405814826e-05, 0.00012337928637862206, 9.5300543762277812e-05, 5.30028592038434e-05, 9.9533477623481303e-05, 7.9869103501550853e-05, 7.7635435445699841e-05, 4.3263080442557111e-05, 3.9987957279663533e-05, 5.4228086810326204e-05, 7.1362395829055458e-05, 9.2208763817325234e-05, 9.1736801550723612e-05, 6.7234177549835294e-05, 4.24946665589232e-05, 3.5410823329584673e-05, 5.6665438023628667e-05, } };
const TfArray<64, int> quant20_zero = { 64, { 0,0,0,0,0,0,0,0,0,0,0,0,0,0,0,0,0,0,0,0,0,0,0,0,0,0,0,0,0,0,0,0,0,0,0,0,0,0,0,0,0,0,0,0,0,0,0,0,0,0,0,0,0,0,0,0,0,0,0,0,0,0,0,0 } };
const TfLiteAffineQuantization quant20 = { (TfLiteFloatArray*)&quant20_scale, (TfLiteIntArray*)&quant20_zero, 0 };
const ALIGN(16) int8_t tensor_data21[1*3*3*64] = { 
  /* [0][0][][] */ -3,-29,-5,0,6,-87,-12,-1,-13,13,1,-43,17,3,-1,-2,17,-9,-21,30,-7,43,10,-11,7,-5,15,-5,8,-11,8,-15,38,1,-7,-7,3,-37,-17,15,-13,10,-8,5,-4,-10,-36,-74,-127,-14,-34,-49,-3,32,-29,-3,41,40,-8,3,-25,2,0,-30, 25,-22,-46,-34,52,-127,17,-7,-21,-46,35,27,-26,-18,-61,41,-22,-8,5,-32,-18,127,-48,0,-54,-16,7,16,23,14,-18,-77,120,-36,36,5,-46,-108,-33,-35,42,-43,-86,-37,-19,4,-127,-94,102,-60,-1,-53,20,127,-127,-37,-60,85,23,13,74,-25,-40,127, -8,-24,6,5,-5,-60,-4,-2,-4,18,-40,16,-4,-1,13,-13,3,-7,-17,1,-2,19,17,-11,13,-6,9,-1,5,-7,8,3,0,12,-13,-1,10,-9,-6,13,-17,16,11,10,2,-8,-13,-23,45,-7,-19,-11,-7,-6,7,10,8,21,-13,-1,-32,2,6,-4, 
  /* [0][1][][] */ 3,-18,-59,-18,40,-67,41,-28,-21,-49,-41,-127,127,-17,-23,73,127,-6,-74,127,-12,-42,-21,14,-15,-45,83,37,24,7,-29,-47,84,-36,7,14,22,63,-22,55,4,-26,-47,-21,-14,10,35,-127,121,14,-103,-85,-5,-3,-32,-64,102,-71,20,11,-52,-49,-23,-4, 127,127,-127,-127,127,-29,127,-110,127,-68,127,93,-83,-108,-127,95,-100,127,127,-112,127,-98,-127,127,-127,-127,127,127,127,127,-127,-127,127,-127,127,127,-127,127,-127,127,127,-127,-127,127,-127,127,93,-82,-94,127,66,-127,127,97,-68,-127,-127,-127,127,127,127,-127,-127,-22, -8,-47,-21,11,17,-49,21,-1,-37,-35,-70,57,-31,-3,-14,50,-21,-21,-87,-22,-32,-24,-15,-15,14,-12,49,-1,-3,-14,3,-17,53,-3,-15,-23,40,6,-14,28,-18,-24,-28,-42,4,-16,15,-99,-47,2,-127,-7,-28,-26,-2,-24,45,-42,-9,-12,-63,-24,2,0, 
  /* [0][2][][] */ 1,-17,15,3,-6,-22,-36,27,-2,35,-1,-61,27,14,14,-70,8,-10,-11,2,-8,-7,14,-8,1,3,-25,0,-5,-5,14,-8,4,12,-12,-8,-5,-17,-9,9,-13,12,28,5,4,-15,3,-16,23,-8,-4,9,-8,-6,7,16,9,29,-16,-2,-15,12,-2,32, -36,-26,-17,6,20,-33,21,127,-62,127,21,29,-4,127,10,-127,-14,-27,-20,-2,-39,-1,-10,-29,25,9,-13,-18,6,-33,12,-3,46,-13,-7,-4,17,-34,-1,-53,-7,-25,-9,-40,10,-10,39,-94,-36,-26,-102,27,-9,-25,-36,-20,-14,29,-20,-15,50,-1,0,-105, 2,-10,15,-3,-17,-22,-24,2,11,16,2,14,-17,1,17,-51,4,-6,-4,-2,0,-5,14,-4,1,-3,-15,14,-3,1,9,-1,-18,6,-6,-1,-8,11,3,10,-12,15,20,11,1,-10,-4,10,6,1,11,-7,-4,1,4,16,-7,16,-10,1,-16,6,-7,2, 
};
const TfArray<4, int> tensor_dimension21 = { 4, { 1,3,3,64 } };
const TfArray<64, float> quant21_scale = { 64, { 0.010057236067950726, 0.017993174493312836, 0.011210613884031773, 0.019025655463337898, 0.014323915354907513, 0.0029578234534710646, 0.0095945727080106735, 0.026643192395567894, 0.030930304899811745, 0.026118217036128044, 0.013884836807847023, 0.0095469756051898003, 0.012419168837368488, 0.026517948135733604, 0.0052906479686498642, 0.0078162616118788719, 0.031050557270646095, 0.01834586076438427, 0.012860613875091076, 0.024687806144356728, 0.018170768395066261, 0.020784066990017891, 0.006497981958091259, 0.013490037061274052, 0.017007956281304359, 0.011475724168121815, 0.0046326909214258194, 0.010721814818680286, 0.0079172328114509583, 0.014028445817530155, 0.010059082880616188, 0.0074145570397377014, 0.0018061078153550625, 0.022804161533713341, 0.012210089713335037, 0.011392989195883274, 0.0142471082508564, 0.014376793056726456, 0.0089734122157096863, 0.0097987903282046318, 0.014068164862692356, 0.0038985989522188902, 0.0061783469282090664, 0.030938047915697098, 0.021854598075151443, 0.017823060974478722, 0.012470847927033901, 0.0017833330202847719, 0.020013567060232162, 0.015184656716883183, 0.003410418750718236, 0.0061282315291464329, 0.015729457139968872, 0.0067094308324158192, 0.0080066528171300888, 0.010098547674715519, 0.016944089904427528, 0.013050504960119724, 0.0082036638632416725, 0.0090821906924247742, 0.010953611694276333, 0.012906047515571117, 0.012023359537124634, 0.018767166882753372, } };
const TfArray<64, int> quant21_zero = { 64, { 0,0,0,0,0,0,0,0,0,0,0,0,0,0,0,0,0,0,0,0,0,0,0,0,0,0,0,0,0,0,0,0,0,0,0,0,0,0,0,0,0,0,0,0,0,0,0,0,0,0,0,0,0,0,0,0,0,0,0,0,0,0,0,0 } };
const TfLiteAffineQuantization quant21 = { (TfLiteFloatArray*)&quant21_scale, (TfLiteIntArray*)&quant21_zero, 3 };
const ALIGN(16) int32_t tensor_data22[64] = { -874, 5532, 24361, 10113, -5094, 42959, -3888, -810, 2419, -1080, -1831, 324, -100, 171, 30380, 155, -336, 4945, 13197, 214, 5766, -836, 16212, -3025, 16938, 12672, -3135, -371, -2794, -120, 19035, 28985, 476, 11167, 291, -3736, 14400, -810, 15492, -5528, -4966, 30353, 23887, 3957, 11188, 211, -91, 84199, -483, 1829, 32851, 25665, -36, 82, 25272, 20338, -27, 1341, -3601, 117, 7161, 14395, 17135, 208, };
const TfArray<1, int> tensor_dimension22 = { 1, { 64 } };
const TfArray<64, float> quant22_scale = { 64, { 0.00016753771342337132, 0.00029973796335980296, 0.00018675117462407798, 0.00031693745404481888, 0.00023861388035584241, 4.9272679461864755e-05, 0.00015983046614564955, 0.00044383361819200218, 0.00051525019807741046, 0.00043508838280104101, 0.00023129952023737133, 0.00015903757594060153, 0.0002068837929982692, 0.00044174725189805031, 8.8133863755501807e-05, 0.00013020660844631493, 0.00051725341472774744, 0.00030561315361410379, 0.00021423757425509393, 0.00041125997086055577, 0.0003026963968295604, 0.0003462298191152513, 0.00010824614582816139, 0.00022472278214991093, 0.00028332576039247215, 0.00019116749172098935, 7.7173339377623051e-05, 0.00017860854859463871, 0.0001318886352237314, 0.00023369181144516915, 0.00016756847617216408, 0.00012351485202088952, 3.0086912374827079e-05, 0.00037988141411915421, 0.00020340086484793574, 0.00018978926527779549, 0.00023733438865747303, 0.00023949473688844591, 0.00014948291936889291, 0.00016323241288773715, 0.00023435347247868776, 6.4944521000143141e-05, 0.00010292153456248343, 0.0005153791862539947, 0.00036406319122761488, 0.0002969041233882308, 0.00020774468430317938, 2.970752029796131e-05, 0.00033339450601488352, 0.00025295247905887663, 5.6812205002643168e-05, 0.00010208668390987441, 0.00026202798471786082, 0.00011176855332450941, 0.00013337822747416794, 0.00016822590259835124, 0.00028226186987012625, 0.00021740086958743632, 0.00013666012091562152, 0.00015129499661270529, 0.00018246992840431631, 0.00021499443391803652, 0.00020029023289680481, 0.00031263145501725376, } };
const TfArray<64, int> quant22_zero = { 64, { 0,0,0,0,0,0,0,0,0,0,0,0,0,0,0,0,0,0,0,0,0,0,0,0,0,0,0,0,0,0,0,0,0,0,0,0,0,0,0,0,0,0,0,0,0,0,0,0,0,0,0,0,0,0,0,0,0,0,0,0,0,0,0,0 } };
const TfLiteAffineQuantization quant22 = { (TfLiteFloatArray*)&quant22_scale, (TfLiteIntArray*)&quant22_zero, 0 };
const ALIGN(16) int8_t tensor_data23[64*1*1*64] = { 
  /* [0][0][][] */ 19,-33,24,29,29,-7,-6,-1,-18,-10,-21,16,5,-2,-6,-5,-16,-106,12,0,54,-4,81,15,-14,-38,4,35,-20,-98,-16,54,-25,-2,-28,85,-41,25,75,1,36,12,-30,127,-22,-17,11,-11,-10,-3,-23,-5,29,7,64,-64,0,6,40,1,-24,-48,19,9, 
  /* [1][0][][] */ -58,23,27,-40,-20,18,-23,20,45,-18,23,-10,21,-29,6,-12,0,-44,-8,-13,-44,15,-22,-12,1,29,-82,-2,-28,-29,49,-13,18,-70,-36,-25,-50,-5,7,-28,4,2,-18,-36,12,127,-29,40,-4,72,-6,-16,-21,29,8,-29,-23,-22,5,-22,-70,31,-37,-2, 
  /* [2][0][][] */ 8,-12,-22,-22,4,-18,-37,-13,-21,-2,127,-45,58,2,-33,36,-15,75,82,-9,-10,26,-35,-1,-38,-13,-7,96,-33,1,-11,11,-57,-28,-11,-30,-35,58,-42,39,-2,-63,68,36,-3,-30,-6,37,71,40,-43,-4,-9,57,-55,61,-36,-4,-57,29,-44,-14,32,58, 
  /* [3][0][][] */ 23,11,1,-5,-5,-16,-10,6,8,3,-2,4,-3,24,-25,4,-16,2,22,-4,40,31,-5,-8,-72,-15,-1,46,1,-13,-1,21,6,3,-1,-12,-27,-34,-20,-18,18,-42,2,0,-5,18,4,22,6,-63,8,1,4,-127,14,-38,4,-24,27,-50,3,-17,-52,-45, 
  /* [4][0][][] */ 2,18,14,-5,-55,8,-42,-16,16,23,67,-36,5,-1,39,29,-11,12,36,-17,-10,23,-59,-5,6,-14,-7,-127,-19,-17,29,-25,41,-19,-72,-43,34,-49,-3,11,5,7,26,-3,-60,79,49,-65,1,38,25,-33,-12,-32,3,-12,-13,-3,16,-9,-9,-23,-43,0, 
  /* [5][0][][] */ -2,0,13,-24,3,-4,-3,6,-4,-35,-3,0,3,-28,-44,-20,-2,-20,5,13,-19,127,-6,-34,16,27,-10,6,22,-11,-9,-15,6,21,4,-9,5,-3,-15,36,16,-16,4,19,8,21,-15,13,1,50,-13,1,-1,8,6,4,8,-38,34,-14,-3,31,-20,-38, 
  /* [6][0][][] */ -90,55,60,-12,-46,-67,-8,-23,-70,38,31,5,31,15,88,61,-10,-86,64,-28,8,22,6,76,-124,-52,18,-22,22,-59,-18,-18,62,-55,-82,-25,59,-8,5,-127,30,-19,92,5,36,107,40,-14,-7,56,54,11,57,-17,2,-2,89,51,33,-5,-122,-20,35,-12, 
  /* [7][0][][] */ -75,-25,-3,1,-2,6,-16,-14,83,110,11,27,-24,94,80,22,93,-29,-116,127,37,13,-28,-52,-22,8,70,20,-41,-24,60,-12,58,-71,122,-100,41,35,-1,27,51,7,-123,-10,-36,-3,76,-21,-26,-95,-41,21,-68,26,-9,6,38,42,-20,45,74,-51,-46,29, 
  /* [8][0][][] */ -68,10,-19,-65,-23,-42,14,9,74,-25,28,-1,22,5,127,62,26,-111,-16,16,-11,18,-95,95,-49,-14,-61,72,-21,65,65,-7,24,-46,-13,104,15,46,12,-36,-27,-25,-95,-2,14,-59,18,8,1,14,19,3,27,20,-30,13,21,36,11,104,4,10,-4,-32, 
  /* [9][0][][] */ -22,-77,-11,-42,64,-20,-11,78,87,-12,-5,-40,34,-4,39,-60,40,-16,-16,49,111,5,14,20,50,-127,-57,-27,-33,43,40,20,-22,-76,-13,21,-49,14,-67,-1,-6,87,34,46,-81,-21,-21,9,27,36,-1,-43,-81,13,10,58,61,18,-41,66,91,-38,-79,49, 
  /* [10][0][][] */ -15,-27,-11,-95,18,-41,4,-30,4,-2,-4,-1,6,11,24,26,-9,11,-52,14,-1,-28,24,-1,14,-43,-30,-2,4,-24,-1,-6,9,-7,-2,-8,-5,17,-30,26,16,-42,-2,51,-19,-1,10,-3,3,10,-27,-16,-14,-4,6,47,-2,7,9,-16,127,1,5,-34, 
  /* [11][0][][] */ -19,31,-22,-10,6,23,11,-26,15,45,-54,-98,73,59,11,-10,38,-35,-41,42,78,2,-2,21,6,4,-28,60,-8,-3,65,-28,-87,0,34,-4,-8,19,-19,-30,-35,41,-11,37,26,-25,-25,-2,19,-29,-14,73,-46,70,22,35,19,31,86,-64,127,5,6,7, 
  /* [12][0][][] */ -80,32,-29,81,31,-94,33,0,-1,-17,-2,9,-26,-13,10,-20,8,24,127,33,-31,-50,82,74,-33,-61,-23,-8,8,-67,28,-29,33,82,62,26,-4,-3,-26,-50,5,-2,32,51,-15,89,22,82,-18,-50,-35,-17,32,-35,-55,28,3,-39,-15,-66,-108,-2,126,-25, 
  /* [13][0][][] */ 14,-12,52,-21,-17,-17,34,-26,-1,27,46,-4,6,10,15,53,40,-21,18,61,-15,-31,-2,7,-30,17,-21,-23,7,-10,56,15,83,17,-16,20,18,29,32,32,0,-88,11,-31,22,-9,-1,-127,26,-1,54,-12,9,15,58,74,19,1,97,-72,23,-22,54,-31, 
  /* [14][0][][] */ -1,82,-47,-33,-44,2,-3,-2,-15,13,-4,27,-9,-46,15,-43,32,-46,55,-23,-81,6,-14,-24,-10,-5,-59,27,38,-44,-69,9,1,7,-23,-18,-36,-12,14,-35,13,67,-51,11,6,100,-39,32,-5,34,-18,5,-29,10,4,108,-6,-45,35,-42,-127,-17,-7,-34, 
  /* [15][0][][] */ 31,13,-63,-34,-27,-8,-41,-1,71,22,3,10,-17,56,-25,49,-13,-48,31,-16,7,8,-23,-75,-32,104,18,43,5,-24,-18,-45,-13,-12,-55,-61,-123,-26,-127,19,18,7,-22,9,-16,2,11,-1,-6,64,-30,3,56,-32,75,6,12,-6,4,-17,6,-10,41,-30, 
  /* [16][0][][] */ -12,16,-36,127,-11,78,45,22,-12,13,-15,24,20,-9,62,4,0,7,20,-22,-39,30,-36,8,-9,42,36,-7,34,-5,49,-41,-8,28,-49,-7,-76,4,58,2,-71,32,-66,-30,48,13,9,28,17,-7,28,56,15,0,-27,61,-17,-2,47,-13,-39,-78,-32,-29, 
  /* [17][0][][] */ 16,-6,2,9,31,-36,-10,92,2,74,-28,-7,-2,127,-13,86,-26,24,0,-31,12,28,-7,-11,-30,-21,-32,-59,-9,-5,-18,-5,4,-5,21,-14,-18,43,7,-6,-14,44,4,-18,4,-14,107,-31,11,-77,14,-7,4,45,-35,-51,-14,-5,9,21,48,-17,-19,90, 
  /* [18][0][][] */ -15,-61,-77,6,53,-14,8,4,57,29,-39,29,-15,21,26,-1,-8,5,16,-19,34,1,13,-24,12,11,0,127,32,-1,-44,-48,-60,53,77,33,-68,40,21,-28,-4,66,-44,21,29,-60,-2,100,-5,-29,-38,10,37,71,48,-44,0,-12,-7,19,39,17,-27,23, 
  /* [19][0][][] */ 127,19,-22,-15,-6,0,-11,19,1,-1,3,5,4,-10,11,-8,1,10,-28,9,9,-16,-13,-38,61,23,4,22,-1,26,-13,5,11,4,22,6,4,-10,-7,37,3,7,-13,7,21,-36,-12,-8,-1,11,-2,-13,-45,-19,54,-25,-5,-11,4,-22,40,12,-10,33, 
  /* [20][0][][] */ 18,16,2,-4,-39,-2,-9,-22,9,12,25,13,17,71,-6,8,-4,-14,10,-11,2,-5,-7,22,-11,-14,10,27,22,4,-17,-33,-36,-19,-25,-45,24,5,-19,18,-5,0,-50,-8,-24,-50,-6,19,127,5,51,-18,-8,-32,-18,1,-11,7,22,-30,15,-17,31,9, 
  /* [21][0][][] */ -16,-22,62,57,-64,11,-48,1,55,-5,7,-26,17,-9,68,9,2,-17,60,22,81,36,46,6,-8,-43,104,-31,-7,-13,100,-78,85,-36,-37,-29,-14,41,-58,-102,-12,8,69,-84,-42,-9,-47,42,3,127,17,10,21,21,-11,-26,1,62,-13,-22,-12,-42,3,-5, 
  /* [22][0][][] */ 79,40,-15,-127,-19,8,-28,33,18,1,-4,-19,-14,3,111,1,1,-12,-50,40,12,20,-3,-14,34,-2,-9,-41,-11,-1,67,16,-12,-10,-36,-43,-49,26,44,122,-88,-53,-40,23,-9,24,-4,40,-2,2,38,-1,-125,12,-2,49,20,-14,-33,-62,83,-58,-38,3, 
  /* [23][0][][] */ -69,-2,71,16,-35,79,-46,49,37,24,11,58,21,37,60,20,-31,47,20,-50,20,-8,24,50,-105,-39,1,34,24,-22,-14,-75,4,-40,45,-42,17,75,-43,-127,4,-17,-44,-21,-2,-8,63,-44,-18,-97,10,-12,58,-21,-29,-24,19,86,53,39,-106,25,-47,-10, 
  /* [24][0][][] */ 3,-26,25,8,16,17,-11,5,-37,4,-2,25,-17,-15,-17,28,8,-6,20,32,52,9,-17,53,34,-15,5,27,7,25,18,8,-11,39,-30,24,-49,2,-22,30,-36,-6,20,127,22,-63,20,-61,3,-31,30,-8,-11,8,-25,-5,-19,-15,-2,5,-7,-25,-14,-10, 
  /* [25][0][][] */ 15,-6,87,-22,3,23,-17,34,-13,33,-23,4,36,24,36,41,-85,7,6,-64,3,19,-13,-13,-10,8,21,-13,-12,-9,-21,-29,-8,-3,-30,-8,-127,48,16,-27,-47,18,-17,15,61,5,68,-25,-23,-35,33,-27,-40,17,-19,-10,-25,19,43,-15,-20,22,58,30, 
  /* [26][0][][] */ -42,13,24,7,-5,41,-38,11,107,-16,48,41,-10,-19,90,33,48,-37,-32,16,-127,33,-58,20,-16,-35,9,25,-54,44,10,-40,-81,-82,-79,-58,73,-23,22,-4,-35,-30,39,-79,-22,53,-22,-32,12,-43,-52,-31,12,-37,2,-10,10,25,-14,46,-11,-56,28,-43, 
  /* [27][0][][] */ -18,40,-50,0,-30,-55,-22,21,-26,-5,25,58,-40,-60,-6,-5,-1,7,33,-7,-15,-1,-41,-13,35,20,-34,4,-75,-1,-15,38,44,-18,-11,-19,-55,67,1,32,-1,41,65,30,6,86,44,-53,-9,-24,-55,-4,16,127,1,-3,-9,-3,25,-19,-36,-7,-40,16, 
  /* [28][0][][] */ 17,4,95,-7,32,-23,28,-9,-88,-36,-21,10,9,-63,-12,-14,-27,127,-33,-8,-63,-12,-6,-37,61,2,52,-21,22,-20,-19,65,6,31,72,-15,-62,26,41,19,82,18,55,63,9,-72,-13,-19,2,47,-17,-38,-14,28,35,-39,0,-12,49,20,-11,98,-19,15, 
  /* [29][0][][] */ -2,34,29,-18,37,-61,21,-44,-3,13,52,-26,-17,34,-7,10,-10,-33,15,-1,-4,-25,-8,-25,10,-3,37,-11,41,-56,-73,-127,18,40,9,56,-2,34,68,38,32,3,15,12,4,-33,2,39,27,-21,51,-31,23,10,84,-30,-26,2,42,-61,-39,16,-13,-16, 
  /* [30][0][][] */ -29,-92,-33,-37,26,38,31,-14,89,-49,38,11,-20,-20,48,8,19,60,106,-14,21,-26,-7,-27,2,33,7,-7,33,19,-16,3,-16,50,97,39,26,35,69,2,-20,87,-3,14,-3,-76,18,-28,-12,-3,25,127,49,-42,14,42,39,0,53,-19,48,67,-44,-11, 
  /* [31][0][][] */ -57,-102,93,5,23,48,-4,-8,84,42,-5,-55,72,42,-30,7,-3,-70,-62,6,79,-6,-13,6,46,11,-34,30,0,19,35,-66,-11,10,-28,58,-53,-43,-34,7,-15,-68,14,69,-16,-38,-37,7,18,127,68,19,16,-46,-44,-3,-23,-10,40,86,9,-32,4,26, 
  /* [32][0][][] */ 10,-21,26,-71,41,-8,8,-109,15,-8,-67,-27,17,43,19,-2,16,6,40,40,61,26,17,53,-35,4,24,-108,2,59,-66,34,-66,50,48,28,3,-124,31,-7,75,-7,90,127,30,-17,53,73,-57,71,32,-66,28,-2,5,0,23,71,127,52,-98,-50,23,19, 
  /* [33][0][][] */ 26,114,-8,41,-80,45,-42,1,-62,107,-5,-22,-20,-9,101,51,96,119,30,18,-62,12,1,-38,-48,-12,10,27,-8,-95,20,-44,-17,-10,7,-57,5,-40,-23,-43,49,67,-78,-118,24,127,-19,73,-23,16,-6,13,-47,-33,109,76,-30,35,-32,-12,-63,-24,48,-2, 
  /* [34][0][][] */ -11,1,-1,-26,-46,-22,8,36,-49,-5,32,56,23,-27,38,16,27,-19,41,5,30,18,35,25,41,-13,-80,-37,14,8,45,-53,-10,-19,-43,-35,46,63,-45,-22,36,-15,9,34,-68,-12,63,-43,11,16,41,27,36,127,5,9,68,-33,-6,-9,-2,-41,-19,25, 
  /* [35][0][][] */ 12,30,-62,-2,-46,-37,-47,-32,120,13,39,28,9,8,27,-19,21,-33,-38,8,-13,-5,-39,-27,-4,-25,3,3,-79,-10,18,32,-62,-49,32,-74,46,18,-20,-7,-20,-30,-66,-42,-126,-37,-7,-18,18,2,-19,-5,-28,-3,-11,-127,24,3,-57,-36,41,3,60,25, 
  /* [36][0][][] */ -13,58,4,-51,-12,-52,2,21,-29,6,9,-13,-27,-19,103,85,-41,2,34,-14,81,30,23,19,-123,-34,-30,-53,-15,-1,63,-127,3,-65,13,-38,-60,44,-74,-36,-22,-17,74,10,-31,3,39,-43,-19,-24,34,1,-19,-23,-117,26,1,57,-7,4,18,13,26,-111, 
  /* [37][0][][] */ 34,52,-20,2,-11,-17,-4,-5,28,-19,66,75,127,-30,-23,-25,101,-2,4,115,15,8,22,-6,-1,22,0,-11,-5,-13,52,11,-25,-4,23,-15,25,-25,-10,21,22,28,-29,12,18,27,-28,22,0,-5,-7,-99,46,-2,5,6,72,-23,1,-39,-31,-4,-9,-10, 
  /* [38][0][][] */ 48,127,104,-16,-30,-13,-24,24,-61,26,-11,-20,9,-16,-116,-40,16,84,2,-20,-41,-7,-12,-14,42,2,-33,-80,-10,-96,-70,-28,-22,46,-6,-46,-50,14,-56,15,26,-38,70,14,-85,121,7,19,-5,8,-23,-1,-28,27,-24,28,-15,-36,23,-94,-21,0,-24,55, 
  /* [39][0][][] */ 95,68,-8,21,52,-39,59,-106,-62,-75,50,20,-3,-34,-61,4,-3,24,-102,-16,36,43,-40,64,127,-16,42,16,2,71,-18,114,54,54,102,-28,-34,3,9,-15,14,97,-39,36,37,-79,-11,-11,16,46,21,18,43,30,45,-64,-17,-127,-34,17,-5,-50,-57,31, 
  /* [40][0][][] */ 35,-40,-2,-75,-27,-2,-27,21,48,-4,-43,28,-39,-9,49,-19,34,-12,31,106,-50,29,-18,9,-21,-9,-38,-31,-4,12,127,-62,-11,-14,63,-5,-63,25,-2,67,-68,-10,-67,11,-43,107,64,51,-16,-82,-54,-19,-43,-24,-20,35,8,-18,24,-56,-14,-61,45,-4, 
  /* [41][0][][] */ -4,-3,-47,-3,35,-50,-57,-36,47,19,20,16,73,-29,18,-7,66,-33,-4,57,-35,-50,-25,30,-44,21,20,0,-36,-57,4,-50,-20,-4,23,-8,-28,6,19,-17,15,11,-45,-2,-98,127,-2,-83,0,-19,20,46,14,-82,-11,-16,-10,31,-17,-15,35,-66,-123,17, 
  /* [42][0][][] */ 7,34,53,-115,15,-50,-20,38,21,4,8,2,11,-1,115,-4,0,-26,-40,-30,11,-14,53,-32,-4,12,-83,-3,-27,-40,-25,41,-35,-47,-124,-44,3,26,-33,100,-8,3,-38,127,-86,44,11,-15,24,10,53,-5,-72,24,-25,82,23,10,-22,19,75,-14,-63,19, 
  /* [43][0][][] */ 6,-29,59,11,87,-62,26,22,-7,-127,34,24,1,-2,-72,-62,-115,24,61,-59,113,-35,-23,-46,39,42,-4,-12,-68,-55,-43,-22,64,69,1,51,-66,-7,-33,12,18,57,19,80,-62,4,6,45,-24,-30,0,-73,-44,-11,24,-36,-39,-25,67,-126,-33,55,42,-4, 
  /* [44][0][][] */ -29,60,58,-16,-59,-35,-9,9,61,-35,-17,-117,13,7,-9,-3,2,67,22,4,-73,13,-6,-7,41,11,-1,79,64,-4,26,36,24,32,-34,2,-24,-85,37,-15,-17,-64,-8,38,-27,-28,-78,69,-1,127,22,35,-10,-102,-39,0,-25,-1,26,-29,-75,-31,84,-28, 
  /* [45][0][][] */ 2,-2,-42,-6,18,-16,-16,-6,-4,1,-10,41,-22,-8,-15,-17,-17,-68,19,-3,127,0,-8,23,-7,-15,-10,-15,9,8,-23,-34,-17,-34,-23,11,3,6,-54,31,-16,45,29,70,15,-6,28,-99,-1,-39,-38,6,-7,29,-1,79,-14,3,9,44,15,-41,-17,-5, 
  /* [46][0][][] */ 25,22,23,3,-48,-59,-9,-3,-27,-61,2,-26,-80,-4,-12,-23,-68,101,35,-44,-31,-13,27,4,44,39,4,70,24,-10,-14,56,-43,-7,-40,32,-112,-38,6,-4,-76,7,-10,127,82,36,-33,-37,15,9,36,-5,-7,-19,55,-64,-17,-1,18,-10,-90,12,47,-51, 
  /* [47][0][][] */ -38,10,-46,-96,2,-1,30,63,2,-30,20,37,5,4,-31,-26,14,36,-60,8,-14,16,7,40,67,-16,-11,69,55,49,-107,12,53,18,69,-17,5,-37,38,32,73,84,8,82,58,17,-37,-127,-11,18,-17,-18,54,-24,43,-56,-10,-31,68,6,35,16,-17,-20, 
  /* [48][0][][] */ -112,103,36,12,-66,-32,-88,32,14,64,8,-21,10,24,-4,20,10,-60,56,-61,66,75,-9,32,-98,-26,-46,-95,10,-32,-47,64,-7,-23,-76,-55,53,-14,10,-37,-127,-65,50,36,26,60,24,0,-2,34,78,65,2,30,-35,-13,34,-16,-76,-52,-119,-69,-26,12, 
  /* [49][0][][] */ 54,9,27,-59,-11,-16,-70,-26,65,16,54,-6,15,-6,-11,12,69,49,6,93,12,12,-64,-15,78,-3,21,-1,-52,78,8,15,-39,-10,-16,-41,19,-20,1,127,-25,25,-52,17,-59,-12,-24,-3,34,3,11,-21,2,-2,18,38,114,-17,6,11,103,-94,-27,25, 
  /* [50][0][][] */ -19,0,-16,-22,9,-9,1,23,-44,20,35,-24,6,1,1,21,5,55,9,-4,8,15,-17,9,23,-3,-24,-127,-25,-13,16,-24,14,-12,-45,-23,12,22,-34,1,-1,22,-16,65,19,35,11,-44,36,2,-40,9,4,38,15,-11,-11,-6,13,17,1,16,-4,35, 
  /* [51][0][][] */ -1,-40,-32,43,-4,-9,64,-17,-38,-1,6,-17,-37,30,28,14,-33,40,73,1,127,3,58,30,14,4,6,4,17,39,62,-18,18,4,34,-7,-40,9,-3,-16,55,26,-6,-19,-9,-108,31,-51,15,-46,9,93,76,12,-20,-25,-60,35,-5,23,-72,-46,-36,-16, 
  /* [52][0][][] */ 46,41,15,60,-24,20,-26,7,37,16,-7,-7,18,2,34,0,29,-10,8,5,71,19,-59,-29,13,26,2,-3,-29,67,45,-29,-25,-50,23,-5,45,-9,47,-32,-47,52,5,-127,1,-54,20,8,10,-45,27,10,-37,-19,19,-57,7,-17,-42,7,-18,-34,-4,27, 
  /* [53][0][][] */ 18,7,-24,-40,-29,29,-65,43,77,5,-19,-26,42,28,44,9,-4,-32,-67,-7,41,-9,-78,-11,5,-49,-26,-127,-54,-28,29,-49,19,-61,-20,-49,15,2,-16,-4,-17,-8,68,-21,-31,81,-21,2,-15,18,33,-4,-17,73,29,-60,17,59,-73,22,63,1,51,-20, 
  /* [54][0][][] */ 127,61,-59,-15,-14,11,21,-8,-76,-12,1,75,-42,46,-3,-1,-88,111,69,-66,-12,34,-39,68,44,96,28,31,63,-16,-33,-22,-23,59,-121,-16,-5,24,21,-23,-18,-66,15,118,40,-5,56,-50,8,-40,50,-32,7,-60,-102,29,-39,16,-31,-126,-97,8,1,22, 
  /* [55][0][][] */ 31,59,1,2,-89,42,-25,-38,1,5,-15,-122,79,70,-71,-5,-5,12,-55,-31,74,11,7,-5,5,-21,10,-66,31,-13,-65,-17,13,9,-127,1,54,-69,-40,13,20,-56,54,-54,-28,-62,-125,61,14,79,85,44,73,-106,30,37,-3,21,-45,-51,112,-43,73,9, 
  /* [56][0][][] */ -96,28,1,22,1,-28,-22,-26,-8,-23,41,4,-9,-29,-76,-25,38,104,24,14,-23,-11,-6,98,10,-127,-66,25,-4,26,-39,0,5,8,23,8,111,-28,-14,-39,67,-23,-6,0,-22,-2,-11,35,-3,10,-34,-6,33,-4,-24,43,-19,-23,-14,30,-34,4,-30,-18, 
  /* [57][0][][] */ -7,27,3,34,-60,-59,14,-65,-48,22,10,34,-3,12,-54,5,-7,127,33,1,-51,-36,85,-79,42,54,-21,-11,26,-51,-1,17,-27,-9,-31,-62,-28,32,41,43,104,-32,3,78,-58,-10,30,-6,11,-20,39,10,-2,25,-42,-78,-14,6,39,-6,-72,27,28,4, 
  /* [58][0][][] */ -6,22,-73,-11,37,-20,-31,-50,-23,-127,37,34,3,-102,-6,-61,5,81,113,1,25,-9,18,-12,94,-53,-115,14,-6,-88,-22,-4,24,31,-81,28,28,-47,-9,23,46,-59,52,71,5,56,-75,-23,-1,60,8,-39,27,-19,50,36,11,-43,7,-122,-41,-44,-40,-74, 
  /* [59][0][][] */ -25,98,-56,-78,-117,0,-84,-24,38,-12,-51,6,-41,-26,-81,-60,-22,12,32,5,-38,-22,-38,27,-40,-16,-64,80,64,-15,14,-32,-76,-96,-77,-55,96,-16,-69,29,-36,-38,-127,65,-36,88,-20,37,-27,20,112,-1,19,-18,-20,-11,-44,-3,-52,28,-1,-60,77,-3, 
  /* [60][0][][] */ -1,29,44,-47,-9,-25,-75,15,25,-2,25,0,3,-4,17,22,14,-55,1,-3,99,10,-127,-49,38,-67,-69,23,-14,48,23,28,-19,-17,-19,-49,1,-18,-28,20,-45,-42,25,51,6,-1,-5,-16,6,7,29,-19,-61,-29,-12,-5,71,15,-28,-50,25,7,-14,6, 
  /* [61][0][][] */ -7,39,-23,8,-12,26,-22,-15,57,2,18,-29,46,2,9,9,23,67,-125,26,-37,3,-19,33,12,-62,-22,11,-47,33,73,-23,-20,-60,-29,-55,-6,-19,2,63,-88,-31,4,-46,4,33,-29,-38,10,46,17,10,-77,-32,6,-29,11,19,7,93,127,-35,-10,10, 
  /* [62][0][][] */ -61,44,-54,-74,-24,25,-102,102,26,20,75,65,-7,-59,-51,21,56,-118,-5,31,28,-7,-25,7,-72,-23,-127,-47,15,-43,48,21,-97,-57,19,-59,17,14,-11,85,-16,13,-9,-75,-33,10,33,47,58,-5,-28,-8,-35,-73,-58,-22,9,10,-48,-80,36,-11,49,65, 
  /* [63][0][][] */ -64,25,23,-73,-3,10,42,-12,-17,23,10,24,19,5,82,19,-27,-28,-7,-15,-6,18,61,127,-92,-29,13,-35,4,-74,4,5,4,13,-59,-21,-21,24,-52,-1,59,-4,41,107,-4,49,5,-51,9,12,-17,0,29,-2,-31,8,2,90,-21,-3,14,-22,21,-40, 
};
const TfArray<4, int> tensor_dimension23 = { 4, { 64,1,1,64 } };
const TfArray<64, float> quant23_scale = { 64, { 0.0044911610893905163, 0.0061710495501756668, 0.0021254883613437414, 0.0098426584154367447, 0.0025237072259187698, 0.0091546885669231415, 0.0019383070757612586, 0.0035600145347416401, 0.0033608104567974806, 0.0041362233459949493, 0.0062570534646511078, 0.0019215322099626064, 0.0036702442448586226, 0.0024949708022177219, 0.0059378533624112606, 0.0038425363600254059, 0.0046494947746396065, 0.0026157805696129799, 0.0014802186051383615, 0.0069507015869021416, 0.0042072013020515442, 0.0041806804947555065, 0.0041525936685502529, 0.0028199807275086641, 0.0062448028475046158, 0.0064606177620589733, 0.0052407579496502876, 0.0054352828301489353, 0.0042347018606960773, 0.0023006158880889416, 0.0029902243986725807, 0.0040683471597731113, 0.0017051256727427244, 0.0039889104664325714, 0.0046528466045856476, 0.0059465579688549042, 0.0020007779821753502, 0.0028281521517783403, 0.0037641627714037895, 0.0038625802844762802, 0.0059158052317798138, 0.0021123508922755718, 0.0039413203485310078, 0.0038604717701673508, 0.0039545889012515545, 0.0066022463142871857, 0.0036152107641100883, 0.0045329537242650986, 0.0030914861708879471, 0.0029897887725383043, 0.0037445486523211002, 0.0041014077141880989, 0.0047378670424222946, 0.0049896999262273312, 0.0030648040119558573, 0.0036775877233594656, 0.0049731326289474964, 0.0044519104994833469, 0.0037608705461025238, 0.0024407834280282259, 0.0054405247792601585, 0.0052537806332111359, 0.0039916322566568851, 0.0042355186305940151, } };
const TfArray<64, int> quant23_zero = { 64, { 0,0,0,0,0,0,0,0,0,0,0,0,0,0,0,0,0,0,0,0,0,0,0,0,0,0,0,0,0,0,0,0,0,0,0,0,0,0,0,0,0,0,0,0,0,0,0,0,0,0,0,0,0,0,0,0,0,0,0,0,0,0,0,0 } };
const TfLiteAffineQuantization quant23 = { (TfLiteFloatArray*)&quant23_scale, (TfLiteIntArray*)&quant23_zero, 0 };
const ALIGN(16) int32_t tensor_data24[64] = { -11059, 11073, 7233, 16584, 24936, 891, 24406, -11288, 3199, -27228, -11705, -5706, -8864, 16822, 16925, 27293, -2385, 18514, 6035, -12438, 13638, -15744, -8547, 21563, -10424, 3756, 25815, -5522, -26915, 30632, -43007, -7925, 4853, -13247, -9710, 19957, 31554, 160, 13697, -19458, 1847, 45106, -22782, -9454, -6673, -3174, -16237, -11954, 25785, -19259, 6652, -14515, -31, -1563, 7666, 11515, -3315, -5002, -3545, 18429, -2615, -4930, 38964, -8530, };
const TfArray<1, int> tensor_dimension24 = { 1, { 64 } };
const TfArray<64, float> quant24_scale = { 64, { 0.00010314852261217311, 0.00014173053205013275, 4.8816102207638323e-05, 0.00022605639242101461, 5.7961995480582118e-05, 0.0002102557773469016, 4.451710992725566e-05, 8.1762875197455287e-05, 7.7187753049656749e-05, 9.4996663392521441e-05, 0.00014370577991940081, 4.4131840695627034e-05, 8.4294515545479953e-05, 5.7302007917314768e-05, 0.00013637471420224756, 8.8251552369911224e-05, 0.00010678497346816584, 6.0076647059759125e-05, 3.3996187994489446e-05, 0.00015963679470587522, 9.6626812592148781e-05, 9.601771307643503e-05, 9.5372641226276755e-05, 6.4766514697112143e-05, 0.00014342441863846034, 0.00014838104834780097, 0.000120364515169058, 0.00012483216414693743, 9.7258416644763201e-05, 5.2838255214737728e-05, 6.8676497903652489e-05, 9.3437753093894571e-05, 3.9161630411399528e-05, 9.161332855001092e-05, 0.00010686195309972391, 0.00013657462841365486, 4.5951877837069333e-05, 6.4954183471854776e-05, 8.6451545939780772e-05, 8.8711902208160609e-05, 0.00013586832210421562, 4.8514375521335751e-05, 9.0520326921250671e-05, 8.8663473434280604e-05, 9.0825065854005516e-05, 0.00015163382340688258, 8.3030565292574465e-05, 0.0001041083742165938, 7.1002177719492465e-05, 6.8666493461932987e-05, 8.6001069576013833e-05, 9.4197050202637911e-05, 0.00010881461639655754, 0.00011459846427896991, 7.038936746539548e-05, 8.4463179518934339e-05, 0.00011421796079957858, 0.00010224705329164863, 8.6375934188254178e-05, 5.605748447123915e-05, 0.00012495256669353694, 0.00012066360795870423, 9.1675836301874369e-05, 9.7277181339450181e-05, } };
const TfArray<64, int> quant24_zero = { 64, { 0,0,0,0,0,0,0,0,0,0,0,0,0,0,0,0,0,0,0,0,0,0,0,0,0,0,0,0,0,0,0,0,0,0,0,0,0,0,0,0,0,0,0,0,0,0,0,0,0,0,0,0,0,0,0,0,0,0,0,0,0,0,0,0 } };
const TfLiteAffineQuantization quant24 = { (TfLiteFloatArray*)&quant24_scale, (TfLiteIntArray*)&quant24_zero, 0 };
const ALIGN(16) int8_t tensor_data25[1*3*3*64] = { 
  /* [0][0][][] */ 82,83,102,66,122,57,-95,-103,86,80,86,-73,89,89,79,66,96,-87,95,85,-79,71,-100,-48,-69,80,-80,80,93,-86,90,-69,-41,-81,67,75,-98,-68,68,74,-76,-62,64,90,85,84,83,71,92,-105,-95,-76,76,69,-71,71,78,-75,-87,81,-61,93,91,73, 99,94,116,92,-47,67,43,-127,106,114,123,-111,109,110,99,93,114,-104,127,106,-100,91,-111,-64,-92,100,-95,97,116,-107,109,-90,-53,-99,85,98,-120,-95,94,88,-104,-95,94,110,92,108,113,96,116,80,-113,-94,103,92,-95,104,101,-93,-106,108,-84,109,116,98, 47,42,43,40,-73,18,66,-60,49,50,46,-43,41,48,37,42,55,-20,49,47,-33,36,-53,-27,-37,46,-40,43,40,-45,29,-33,-18,-39,38,37,-37,-54,41,51,-40,-36,34,43,34,43,42,43,49,127,-52,-41,47,35,-47,50,46,-39,-40,38,-36,40,33,46, 
  /* [0][1][][] */ 98,110,98,100,127,100,-127,-96,104,90,93,-85,104,98,99,96,118,-111,-49,99,-104,107,-104,-89,-97,110,-96,94,107,-92,104,-100,-97,-119,95,97,-96,-87,101,103,-90,-90,89,104,112,95,106,95,101,-109,-111,-96,96,93,-91,95,104,-92,-110,98,-93,105,99,97, 127,127,127,127,-55,127,39,-103,127,127,127,-127,127,127,127,127,127,-127,-64,127,-127,127,-127,-127,-127,127,-127,127,127,-127,127,-127,-127,-127,127,127,-127,-127,127,127,-127,-127,127,127,127,127,127,127,127,82,-127,-127,127,127,-127,127,127,-127,-127,127,-127,127,127,127, 57,49,51,46,-91,42,84,-63,53,52,56,-52,50,56,53,53,56,-32,-35,57,-64,52,-68,-58,-49,54,-49,49,54,-48,30,-54,-54,-46,54,42,-41,-72,58,73,-56,-48,49,58,51,60,58,59,57,127,-53,-61,62,52,-58,59,54,-53,-51,49,-55,49,42,55, 
  /* [0][2][][] */ 40,52,34,46,63,55,-82,-32,47,33,33,-34,38,39,37,50,44,-44,-37,51,-40,54,-58,-52,-39,44,-40,42,49,-34,34,-45,-49,-60,44,31,-42,-32,42,47,-41,-35,38,47,50,36,36,46,45,-64,-43,-48,37,41,-44,43,43,-34,-43,33,-46,44,30,42, 52,60,44,63,-21,71,17,-42,51,41,46,-57,48,52,48,71,54,-50,-66,62,-69,63,-62,-68,-51,49,-57,54,59,-47,25,-64,-78,-69,56,45,-53,-56,51,68,-54,-51,52,56,65,54,45,59,54,33,-53,-58,52,53,-58,60,52,-54,-53,37,-61,55,43,47, 12,22,21,17,-50,27,54,-12,30,11,19,-30,16,27,17,32,19,-18,-30,25,-22,24,-31,-33,-17,17,-16,20,22,-14,-26,-27,-36,-22,27,16,-25,-31,25,30,-23,-19,24,31,29,23,15,26,28,65,-21,-17,22,25,-27,27,30,-25,-16,16,-27,18,13,23, 
};
const TfArray<4, int> tensor_dimension25 = { 4, { 1,3,3,64 } };
const TfArray<64, float> quant25_scale = { 64, { 0.0043003675527870655, 0.0063139982521533966, 0.003691250691190362, 0.0031703009735792875, 0.0074346130713820457, 0.002933440962806344, 0.0077549051493406296, 0.0033190583344548941, 0.0024289516732096672, 0.0033784885890781879, 0.0045139132998883724, 0.0049739568494260311, 0.0028064863290637732, 0.0027297027409076691, 0.0046258475631475449, 0.0028755036182701588, 0.0038339481689035892, 0.0088335098698735237, 0.010619635693728924, 0.003324069082736969, 0.0054139923304319382, 0.0025712670758366585, 0.0032899882644414902, 0.0032661466393619776, 0.0034263997804373503, 0.0033582933247089386, 0.0028458996675908566, 0.0036673508584499359, 0.0053579527884721756, 0.0038081859238445759, 0.0056431777775287628, 0.0029222674202173948, 0.0052181598730385303, 0.0031242689583450556, 0.0030093251261860132, 0.0033930053468793631, 0.0059393742121756077, 0.0065813963301479816, 0.0028534780722111464, 0.0023435028269886971, 0.0021717909257858992, 0.0042420458048582077, 0.0030108271166682243, 0.0042413254268467426, 0.0039260196499526501, 0.0029993376228958368, 0.0051500396803021431, 0.0028028502129018307, 0.0025488915853202343, 0.0030437086243182421, 0.0034364862367510796, 0.0047073657624423504, 0.0042929472401738167, 0.0032160929404199123, 0.0028093783184885979, 0.0033532993402332067, 0.0032252315431833267, 0.0029135895892977715, 0.0030928249470889568, 0.0037030633538961411, 0.0027846391312777996, 0.0027699123602360487, 0.0024821993429213762, 0.0032801032066345215, } };
const TfArray<64, int> quant25_zero = { 64, { 0,0,0,0,0,0,0,0,0,0,0,0,0,0,0,0,0,0,0,0,0,0,0,0,0,0,0,0,0,0,0,0,0,0,0,0,0,0,0,0,0,0,0,0,0,0,0,0,0,0,0,0,0,0,0,0,0,0,0,0,0,0,0,0 } };
const TfLiteAffineQuantization quant25 = { (TfLiteFloatArray*)&quant25_scale, (TfLiteIntArray*)&quant25_zero, 3 };
const ALIGN(16) int32_t tensor_data26[64] = { 934, 3673, -6121, -169, 286, 142, -2240, 32210, 1492, 2676, 103, 64619, 163, -730, -196, 506, -466, 37712, 748, 707, 30646, 4650, 29859, 66419, 53927, -322, 52857, 911, -329, 70762, -134, 65872, 53285, 35070, -1797, 3013, 43169, 37891, 3649, 958, 83835, 62449, -687, -93, 764, 2649, -207, -205, 242, -2715, 72700, 38258, -47, 94, 68318, 2780, -111, 63122, 60707, -4191, 69251, -20, 798, -396, };
const TfArray<1, int> tensor_dimension26 = { 1, { 64 } };
const TfArray<64, float> quant26_scale = { 64, { 6.944510096218437e-05, 0.00010196250514127314, 5.9608690207824111e-05, 5.1196060667280108e-05, 0.00012005891767330468, 4.7371093387482688e-05, 0.00012523119221441448, 5.3598290833178908e-05, 3.9224276406457648e-05, 5.4558007832383737e-05, 7.2893577453214675e-05, 8.0322657595388591e-05, 4.5320946810534224e-05, 4.408099630381912e-05, 7.4701165431179106e-05, 4.6435481635853648e-05, 6.1913066019769758e-05, 0.00014264920901041478, 0.000171492705703713, 5.3679206757806242e-05, 8.7428634287789464e-05, 4.1522474930388853e-05, 5.3128846047911793e-05, 5.2743838750757277e-05, 5.5331707699224353e-05, 5.4231881222222e-05, 4.5957418478792533e-05, 5.9222740674158558e-05, 8.6523672507610172e-05, 6.1497034039348364e-05, 9.1129666543565691e-05, 4.7190653276629746e-05, 8.4266204794403166e-05, 5.0452705181669444e-05, 4.8596517444821075e-05, 5.479243554873392e-05, 9.591283742338419e-05, 0.00010628062591422349, 4.6079800085863099e-05, 3.7844391044927761e-05, 3.5071476304437965e-05, 6.8503286456689239e-05, 4.8620775487506762e-05, 6.8491652200464159e-05, 6.3399893406312913e-05, 4.8435234930366278e-05, 8.3166152762714773e-05, 4.5262229832587764e-05, 4.1161139961332083e-05, 4.9151763960253447e-05, 5.549459092435427e-05, 7.6017575338482857e-05, 6.9325273216236383e-05, 5.1935538067482412e-05, 4.536764754448086e-05, 5.4151234508026391e-05, 5.2083116315770894e-05, 4.7050518332980573e-05, 4.9944927013712004e-05, 5.9799451264552772e-05, 4.4968146539758891e-05, 4.4730328227160498e-05, 4.0084152715280652e-05, 5.2969218813814223e-05, } };
const TfArray<64, int> quant26_zero = { 64, { 0,0,0,0,0,0,0,0,0,0,0,0,0,0,0,0,0,0,0,0,0,0,0,0,0,0,0,0,0,0,0,0,0,0,0,0,0,0,0,0,0,0,0,0,0,0,0,0,0,0,0,0,0,0,0,0,0,0,0,0,0,0,0,0 } };
const TfLiteAffineQuantization quant26 = { (TfLiteFloatArray*)&quant26_scale, (TfLiteIntArray*)&quant26_zero, 0 };
const ALIGN(16) int8_t tensor_data27[128*1*1*64] = { 
  /* [0][0][][] */ 3,-20,77,-21,38,10,47,-97,72,-11,-11,20,-81,13,-13,-37,-13,-7,3,-15,-97,-54,55,31,6,-51,-47,26,-20,27,-2,32,34,95,-21,88,-10,10,-24,47,53,7,38,-14,55,-6,84,-50,14,40,-32,-25,34,-46,-61,5,-56,-33,-77,-77,38,-21,127,27, 
  /* [1][0][][] */ -50,12,-11,16,-5,13,3,-10,-127,13,29,-21,79,-85,6,-28,43,-14,-12,27,20,77,30,12,11,22,7,-7,54,63,28,53,-17,-2,0,70,24,-6,6,-4,-32,24,-12,28,28,-8,36,-37,-50,4,-67,-30,30,33,3,-13,-8,-72,38,-78,-22,-21,34,42, 
  /* [2][0][][] */ -25,32,12,-12,24,1,9,-37,6,-22,1,25,-17,39,-9,19,11,-9,9,17,24,-9,18,-21,-17,23,58,58,-22,-21,1,127,-6,-13,46,32,19,-7,-44,-11,27,-44,-29,-17,78,30,-24,17,-29,16,-36,5,5,36,74,15,-24,-27,-2,-40,20,0,0,-22, 
  /* [3][0][][] */ 12,18,0,103,15,-23,2,-2,14,16,-3,-10,-41,3,-9,5,8,5,10,-7,-41,19,-5,41,-26,-73,-19,22,2,-12,27,-37,-7,-17,40,9,42,33,-7,-8,-2,41,-16,4,14,-8,-69,-28,-8,-3,-19,-127,-57,53,-32,-61,0,-27,23,0,21,16,-24,-12, 
  /* [4][0][][] */ -55,52,36,50,20,-2,52,-4,21,49,-54,-9,-28,49,1,45,2,97,-98,83,28,1,12,68,-50,-32,96,-20,-45,-11,-12,102,19,80,-73,45,11,-127,62,-69,-22,-87,-40,70,15,-74,61,65,-38,17,15,-35,-90,-23,55,16,-19,61,-66,95,-33,20,62,90, 
  /* [5][0][][] */ 39,-20,8,-56,12,37,3,-51,-17,17,-39,13,-55,35,2,-14,-23,-11,94,-12,-49,33,-8,-127,-51,-18,-41,-30,-4,-4,13,-61,4,-53,-63,25,-61,44,-12,62,65,-53,16,0,-13,6,12,-10,2,7,23,79,19,-10,13,-23,-44,-57,-16,-18,-33,-26,-32,31, 
  /* [6][0][][] */ -20,-23,-52,-44,9,41,-36,-39,19,22,-33,-57,-15,22,-21,54,-19,15,50,1,5,-35,-2,-30,-92,-53,-16,46,17,-48,-10,-14,26,-105,-74,127,-31,-7,-27,-43,-65,15,-62,-13,-8,-33,-9,-4,12,25,-23,-12,18,-50,43,61,9,-54,-24,31,-10,69,42,-4, 
  /* [7][0][][] */ -55,-82,33,5,-36,-47,-49,-51,-26,-70,127,12,79,30,-75,-59,-28,1,-24,27,-9,51,-44,30,-47,0,32,-7,-65,-76,6,-41,-76,72,-26,6,13,-26,-32,-35,-44,0,-45,47,78,8,9,13,24,51,-6,-26,86,64,33,-103,-52,-53,-39,52,-106,99,-95,7, 
  /* [8][0][][] */ 47,27,93,46,-2,10,0,43,-57,57,-36,-12,-10,-25,37,-84,10,-7,-13,16,-78,-1,-4,-9,-84,-27,-15,-127,-1,9,27,-50,-2,23,70,-11,20,19,-99,-9,19,8,70,25,-25,40,25,-2,-21,-24,-80,-64,2,24,-26,-91,-31,6,-41,77,19,31,-36,7, 
  /* [9][0][][] */ -1,29,46,-65,28,8,-77,62,70,81,-18,74,-74,54,1,-21,69,90,-38,-19,7,-38,18,-19,30,14,-71,-13,27,-101,41,-127,2,-10,-39,-52,-90,19,27,61,35,-106,63,68,-108,-18,0,45,-99,-26,3,13,-4,3,51,85,-21,-37,-40,11,-112,-14,14,30, 
  /* [10][0][][] */ 7,35,-58,12,46,-6,8,3,10,10,3,127,-4,106,-8,-7,-6,-3,28,13,0,39,2,23,-22,-1,27,-1,-2,30,-18,-14,2,1,6,-3,-17,1,-2,19,12,-29,-12,1,-10,-5,-1,-13,10,3,-85,9,-4,21,-4,19,8,4,5,-18,25,49,-15,-3, 
  /* [11][0][][] */ 25,16,-21,-57,3,-29,2,-21,29,6,127,37,-13,-24,6,19,25,31,5,4,5,-13,-37,-14,33,-14,16,6,46,7,-2,10,-42,0,-9,-8,-13,2,2,-43,31,-45,69,-18,-25,-10,-22,50,-6,-8,21,-9,-56,-22,20,14,3,-25,-51,4,-22,-1,23,-4, 
  /* [12][0][][] */ -33,68,-10,17,-18,-35,-11,31,24,4,3,-78,-38,-99,38,49,8,-27,-30,5,-22,-14,1,-31,50,-51,60,30,-47,95,-14,12,-24,9,40,24,-7,-55,-127,-66,7,37,-24,-34,-75,28,44,22,-32,-5,-91,15,-29,-12,-16,-37,-12,-120,19,111,12,2,-18,30, 
  /* [13][0][][] */ 12,22,1,127,-28,-10,-67,-22,-21,-1,-2,21,-4,-21,-40,70,-19,-87,17,-68,-46,-2,-45,-14,5,39,61,44,-16,38,7,-65,33,-29,-94,16,20,45,-26,-1,44,-48,39,-59,31,25,31,51,-35,-46,27,14,30,-27,-84,-45,4,14,9,3,-36,2,15,-4, 
  /* [14][0][][] */ -15,-10,-1,20,-19,15,13,-12,21,-9,-21,-21,27,-16,-19,-59,-9,-17,-12,15,-4,9,-4,-9,19,41,-40,8,-13,-13,20,17,-34,-21,0,18,9,25,-23,50,-4,3,-8,-5,-21,15,-1,-21,19,15,-6,-28,-89,-1,21,19,-10,-10,13,22,7,-13,-13,127, 
  /* [15][0][][] */ -46,-77,71,3,16,45,-11,-112,-37,-13,-3,67,-40,21,-26,13,1,-99,23,98,-79,111,-13,7,-58,-62,-44,-21,-58,39,-43,18,14,-32,19,26,-31,-60,-19,2,-89,-113,-35,-11,5,-28,10,-22,-108,21,-101,8,127,52,21,16,24,31,14,67,-59,8,-82,-103, 
  /* [16][0][][] */ 45,77,127,26,-17,14,-20,24,106,-62,40,-26,8,24,-43,-65,36,8,-15,25,29,78,8,31,63,-45,21,29,23,-23,-26,9,-16,6,81,-50,-22,4,53,-12,4,0,2,-14,72,25,-4,-11,50,-27,-41,-12,33,-27,41,-46,42,9,96,-29,-39,-40,-9,5, 
  /* [17][0][][] */ 28,-34,-35,-28,4,49,-8,-62,-7,-28,-6,36,16,-79,22,-45,-34,82,-16,-9,26,14,16,-7,100,-8,81,34,19,-35,127,-30,7,33,13,12,3,71,85,51,-32,22,-7,19,39,-88,56,-60,-1,-19,54,-16,16,-34,-44,-24,5,72,-61,31,-39,24,-21,-1, 
  /* [18][0][][] */ -21,13,4,37,-4,13,33,127,52,12,2,8,35,9,-101,-9,-39,22,10,31,-42,35,3,-17,45,-94,-58,-31,64,4,46,-63,-16,-23,-54,-82,-2,-38,-51,-53,47,23,11,4,-47,-30,15,-15,39,9,4,18,-58,111,23,-51,31,-51,26,36,-48,-46,45,-88, 
  /* [19][0][][] */ -8,18,17,-11,14,-127,0,-4,-43,20,4,21,-24,1,24,-40,-28,-1,9,115,-11,4,29,4,3,-3,-8,2,17,15,18,-35,-15,2,-7,-7,44,-29,0,34,30,-24,-68,13,-6,-16,15,-37,-59,-2,4,3,36,12,-9,-5,8,37,4,51,-62,-17,4,48, 
  /* [20][0][][] */ -26,5,11,4,-21,8,-6,35,34,-16,-17,-6,-17,-127,6,-25,5,-4,-25,10,1,-5,-11,43,-5,13,9,-7,-4,-127,31,0,-15,16,7,-20,-8,0,-49,-51,-11,-52,57,14,-14,34,-24,-16,19,7,16,22,1,3,-55,-13,16,15,2,9,-30,3,-31,5, 
  /* [21][0][][] */ 5,17,-23,-29,-21,17,-12,39,21,-52,-51,-43,-32,48,-20,88,38,21,2,59,-11,20,-65,-7,-11,17,19,-17,8,19,31,27,-22,13,-8,-23,-38,-16,-15,-14,-32,-4,-8,30,34,28,-18,8,-43,0,26,-14,13,0,-127,-32,-8,37,42,-36,11,36,4,26, 
  /* [22][0][][] */ 9,17,9,-12,-15,61,1,26,-6,-31,38,-27,-70,31,-12,33,-24,10,-4,94,3,15,-53,71,27,29,-8,-26,18,8,22,-24,25,-27,-30,-26,6,1,-7,-42,-35,11,127,-4,-23,22,-8,-22,-53,14,74,-8,-37,0,-75,-19,-25,8,-7,-5,-39,15,-33,19, 
  /* [23][0][][] */ 27,-12,-17,-14,-6,-59,-4,-55,127,-2,15,-7,-31,30,64,-7,15,12,8,-30,52,-43,16,65,28,-15,-26,-1,45,39,-19,23,-17,-21,-39,1,17,20,-112,28,-22,33,-5,-45,29,-9,78,35,19,12,12,-21,-24,7,52,28,2,-72,51,-26,17,-11,5,6, 
  /* [24][0][][] */ -6,47,-127,3,-27,-7,-27,107,38,-19,65,87,10,-25,-13,-20,-26,74,-11,6,46,52,0,31,74,78,86,-62,16,87,-45,13,61,36,-84,14,43,34,4,86,-52,78,-6,31,41,10,41,3,20,-73,-41,-62,-40,-106,-108,2,2,-11,-32,-87,38,87,32,-26, 
  /* [25][0][][] */ -52,81,-37,4,24,-17,-8,-41,-13,7,8,2,50,-5,-47,27,-23,-3,33,-5,64,7,-16,29,-44,20,6,121,1,56,34,15,30,-60,69,-8,-17,14,-18,29,18,-21,4,-20,27,48,-11,3,-45,-31,42,-14,10,-25,22,-127,-47,48,-27,34,-4,-28,-26,13, 
  /* [26][0][][] */ -3,-24,-21,-30,60,-69,2,-19,-45,18,-80,12,-58,-42,12,-21,83,21,30,127,-15,25,5,-74,-42,-4,14,-15,-5,2,103,22,-47,-4,-39,23,-26,-1,-22,-75,-76,-34,-12,74,2,26,-8,2,-40,9,49,-33,-33,-58,25,52,45,-37,30,-18,-39,22,36,11, 
  /* [27][0][][] */ -16,67,-36,-4,6,27,-3,25,4,-35,127,-21,-43,-2,-19,-10,-45,-4,11,-14,-26,-27,-53,-23,28,-19,-51,-25,-12,2,21,20,-3,-77,-72,-57,-69,-42,-17,-5,42,35,87,-2,-5,6,-8,-18,21,-3,3,-61,-28,3,17,-18,-33,-25,-86,24,-20,-20,44,1, 
  /* [28][0][][] */ -53,-35,-18,15,-16,26,10,-31,38,39,127,-40,-7,-48,5,-13,-28,-7,17,121,15,55,4,-44,-113,28,-4,55,-113,6,-35,-76,57,-73,-49,-50,25,18,-27,2,6,-13,-103,-11,5,-39,50,-54,87,27,4,29,-29,-54,-46,14,3,-25,-118,-61,30,68,18,-114, 
  /* [29][0][][] */ 21,5,-35,12,-42,8,-34,46,42,-21,-8,-48,72,-30,-26,-76,-4,-23,33,-16,10,36,16,-18,68,96,10,0,-27,-26,-14,13,-37,29,2,5,-38,58,24,14,3,42,-11,-3,-24,7,29,8,68,-8,-19,-38,-22,10,2,-7,-9,35,56,23,-10,-12,15,127, 
  /* [30][0][][] */ -18,93,-22,17,40,25,9,-4,-28,-44,-24,20,-5,25,-15,-37,-5,-3,16,4,69,43,9,10,-85,7,82,-20,23,-2,31,-3,17,11,43,-28,-10,6,32,17,2,-56,32,-2,4,1,10,3,5,-1,1,-11,29,112,38,-41,0,29,16,-16,3,127,-50,7, 
  /* [31][0][][] */ -32,22,-1,55,-3,-34,-1,7,-35,-58,4,-1,6,-28,-100,64,29,23,-23,-9,-41,-2,35,74,69,24,-34,7,-58,24,31,0,29,8,19,28,-20,-5,76,-60,11,-47,12,48,-11,64,-22,127,-23,17,24,-36,-31,-36,-20,54,20,-43,-6,60,86,6,-54,18, 
  /* [32][0][][] */ -38,-93,62,9,-23,-2,-27,-17,-72,31,46,-42,12,-47,36,20,43,8,1,-37,-50,34,4,7,-78,6,-81,-53,4,-86,-7,-102,4,-47,98,-8,-19,41,-3,15,105,18,-6,-36,-22,103,-116,-93,-91,-20,23,-50,21,33,-12,-65,-38,10,51,127,46,8,-46,-14, 
  /* [33][0][][] */ -6,18,-40,-25,16,42,22,-17,89,-19,-30,-7,13,-73,-20,-127,16,-18,19,23,10,88,14,-24,6,18,-43,58,47,46,-42,38,7,-15,16,17,-29,-23,-14,27,22,-88,40,-9,28,21,83,-39,60,-10,-61,25,-29,-23,25,-24,-48,-3,28,-58,-92,-5,-76,46, 
  /* [34][0][][] */ -29,29,-31,-10,2,9,-8,-46,13,-23,-8,20,79,-64,1,37,22,-3,-26,-49,-7,-42,-6,-19,-38,4,42,-24,18,16,104,20,-2,-32,7,-35,20,-8,33,-18,-127,-23,-14,-12,-60,28,49,46,19,1,15,-67,-6,16,110,18,33,7,83,-3,0,36,-5,-10, 
  /* [35][0][][] */ 127,-7,-41,19,-1,-36,23,9,38,20,-74,49,-50,-28,-22,-83,-20,-44,3,-35,-14,28,-98,118,13,-10,12,-2,-80,-81,94,22,-14,11,63,-40,44,21,-74,-28,-46,-8,65,27,-18,-44,-17,-3,115,7,81,9,14,24,11,6,-39,-67,-47,-41,102,-20,71,-56, 
  /* [36][0][][] */ -40,-127,-22,-6,-61,6,-15,20,-51,-13,-26,0,-50,-69,-7,-26,82,48,-57,22,29,55,87,1,20,-26,37,26,2,-38,3,-10,31,65,-46,49,98,111,80,32,-51,6,-2,8,0,2,-41,59,-24,1,30,54,37,6,-73,16,47,-8,12,-117,14,9,-57,38, 
  /* [37][0][][] */ -73,11,66,-16,17,18,-1,-2,-7,-2,-5,27,-127,-30,7,40,-23,25,-31,116,21,-12,15,44,23,-29,-33,21,42,-31,63,26,-58,-12,0,10,115,-19,48,-58,56,0,-38,-4,-8,-6,-37,-29,-91,43,-29,36,-13,16,-12,16,-23,13,-61,39,-77,-14,-23,-58, 
  /* [38][0][][] */ 26,-29,-8,53,72,36,-10,-81,44,-15,16,-11,23,-14,-54,35,-9,-15,13,127,-2,9,0,36,-15,-1,-3,39,-6,58,31,-34,-5,-36,-28,-1,-17,-23,-61,-51,-4,6,91,-19,-29,-9,-23,36,-42,7,-27,39,86,32,-2,0,48,14,30,-22,-44,-26,-14,-42, 
  /* [39][0][][] */ -14,-52,2,-9,42,-9,11,-13,10,33,-53,5,12,-46,-28,20,24,18,-10,9,19,23,-28,7,-29,62,-74,18,9,27,7,-19,-30,-46,57,12,57,-50,57,40,98,-83,101,-7,48,5,-56,55,-79,32,11,127,16,-61,76,13,-55,44,-12,8,-55,-35,-101,51, 
  /* [40][0][][] */ -35,-3,-5,108,2,-44,-2,4,32,-16,28,-36,38,31,38,84,-9,-16,12,-18,43,76,5,72,21,48,64,20,27,-94,-14,-32,-48,40,53,-17,113,-20,12,79,-60,36,-13,34,25,70,-20,-33,-61,5,-25,-66,15,69,26,17,-6,-12,127,-82,8,-14,1,-42, 
  /* [41][0][][] */ 16,-15,11,-7,-20,37,1,26,16,-34,-22,57,51,-2,2,-80,7,-2,-25,0,0,-45,-74,84,16,35,-4,-20,2,-58,-33,-2,-54,14,0,-14,-19,3,-11,-26,-47,22,95,-28,-9,-9,-38,56,26,3,25,-26,-27,26,38,19,-26,-48,14,-23,28,14,28,127, 
  /* [42][0][][] */ 24,15,-6,20,0,40,-1,32,-51,-23,-57,31,46,10,-35,7,23,-20,65,127,-15,49,14,32,36,-20,-36,-9,-29,-26,-13,-88,-36,-7,45,-37,71,8,62,13,-43,86,81,-12,-66,26,3,-4,-54,41,-14,41,74,33,5,-8,9,-11,39,8,-27,17,-14,-13, 
  /* [43][0][][] */ 26,-10,-9,0,36,-16,0,-6,-26,11,5,-13,24,-17,-24,-31,5,-3,-41,16,-13,5,12,-23,-10,-20,5,-7,-23,-35,-30,26,-24,7,8,22,6,-5,-27,-27,19,-25,-7,-33,5,-12,-12,12,93,-6,14,36,11,-12,8,15,127,12,-6,-23,-6,-16,-22,-5, 
  /* [44][0][][] */ -13,-6,-105,-7,3,3,3,7,-33,-2,3,49,-27,12,-5,-6,-2,4,7,6,-1,27,-8,12,3,-7,-9,-34,-2,8,-4,-7,-6,4,-21,3,-1,-6,5,-20,7,-15,8,-5,44,12,3,-21,-13,6,-127,9,0,-26,-23,-2,-5,13,-8,10,-17,-6,-5,-4, 
  /* [45][0][][] */ -22,-12,40,-49,-18,1,-1,35,-11,-16,-42,-28,-40,-29,8,-31,24,59,-23,56,39,21,-24,-33,-19,-16,41,69,-10,25,1,5,-46,31,-33,-11,13,12,-8,18,-27,10,43,-57,25,-22,35,4,-44,14,127,31,-36,-18,22,-16,-12,-27,0,13,-33,16,-22,-31, 
  /* [46][0][][] */ -27,52,71,-12,39,-11,14,-47,15,-13,-1,113,30,35,-88,5,-33,10,-59,-106,-13,77,-16,-37,63,31,59,74,23,-93,16,-59,-22,54,38,127,-19,-66,62,-34,-51,-3,-16,8,-110,-100,25,-1,-48,-11,42,51,-54,126,-15,43,-101,-61,47,37,53,31,50,21, 
  /* [47][0][][] */ -36,8,-30,-22,36,-1,2,34,46,59,-5,-36,95,49,23,101,-16,29,-4,-50,12,-21,-1,29,28,12,-1,16,56,-62,-12,4,46,127,-53,-56,-67,-47,46,-79,17,-4,-15,13,-20,1,-42,58,-12,1,-38,-36,-7,-35,-20,2,-6,-26,-38,-26,-24,-23,78,61, 
  /* [48][0][][] */ 6,-4,-42,17,-9,-35,30,73,-16,-14,-46,-3,-60,-12,1,86,48,61,46,79,70,-11,115,-9,19,37,15,47,-2,4,16,-14,60,-49,-11,-71,27,5,-98,15,61,-23,-14,-61,31,17,-90,-51,127,-16,56,76,47,-5,-51,-36,-28,-95,10,-65,7,-29,-36,18, 
  /* [49][0][][] */ 14,-1,30,0,17,11,-7,-26,55,9,-1,127,-22,69,16,21,14,5,2,19,-28,11,-2,41,-10,14,18,14,15,-5,-46,-20,-41,1,13,3,0,-42,-33,-3,-43,-22,46,12,3,2,-3,-20,34,-2,-46,-19,-9,3,10,18,3,-14,16,10,-7,-1,-32,-2, 
  /* [50][0][][] */ 1,-26,30,-11,-27,-16,-29,26,127,29,-24,-3,-9,36,35,26,7,3,-12,21,-22,-48,6,-11,-25,-4,47,-46,8,50,-23,3,8,-44,-46,43,-9,-23,-11,-2,5,29,44,1,-24,96,-80,4,19,-9,7,-18,-40,-6,12,-13,43,40,28,41,38,-5,-32,-41, 
  /* [51][0][][] */ 16,4,15,-9,-1,-7,-6,25,-22,-20,38,-5,-16,-19,-1,-4,15,3,-9,-1,-22,89,53,-10,-15,8,-17,14,6,25,9,28,1,5,-25,3,-5,-11,11,2,-18,-44,-48,10,-4,3,1,27,22,16,-11,28,127,-26,-2,8,21,40,33,31,40,-28,-28,20, 
  /* [52][0][][] */ -11,-46,-35,21,12,-22,-7,-5,-7,-43,-38,-63,-75,-34,-20,127,32,1,-4,36,-18,53,-79,119,-70,23,33,22,10,73,43,14,-4,1,6,6,-27,4,-37,-90,-22,-38,88,42,45,-10,9,-71,-67,2,30,53,8,8,-92,-15,54,-24,26,-104,22,21,5,16, 
  /* [53][0][][] */ -4,10,6,46,4,-127,35,3,27,-10,35,9,22,-9,32,-52,-76,17,-18,48,11,17,-60,43,7,-11,-4,17,27,-42,-10,-19,-24,17,33,37,124,-63,9,24,-1,25,27,-15,13,-10,-11,-10,-33,17,-5,34,-98,-14,27,-15,15,-10,-11,-2,-37,28,-33,-20, 
  /* [54][0][][] */ -12,101,-45,0,44,-84,43,40,-70,-25,127,42,2,8,-31,33,-2,119,-62,-37,4,-75,32,44,-12,-42,40,8,-14,-45,77,59,-33,22,35,-21,83,-27,-16,-49,-40,17,47,9,-45,24,-1,26,-50,43,30,16,-72,-4,-26,55,112,15,-7,27,32,23,-81,-79, 
  /* [55][0][][] */ -6,3,93,2,-51,41,-31,26,-46,35,2,-46,48,33,-20,12,19,-85,20,-23,-35,21,-6,-74,19,16,-60,15,45,-97,-70,7,18,-5,-17,-34,8,-12,3,63,26,94,10,78,9,-7,-37,-2,-10,-29,127,58,0,-4,-57,-67,-28,11,79,68,-55,-44,63,31, 
  /* [56][0][][] */ 47,8,-2,67,45,-52,6,56,3,13,-30,44,-11,83,38,77,-71,-35,42,59,-36,-3,40,-1,-4,123,-82,-31,-30,-62,-38,127,-73,-28,77,63,-68,-77,8,-15,-17,60,-90,2,31,-23,-4,-6,42,-57,1,44,-56,-26,-13,-51,61,-8,-56,-49,-39,67,-16,49, 
  /* [57][0][][] */ -1,-17,-59,-21,25,23,17,-56,-24,-1,1,5,-18,-32,0,24,-12,-9,25,-9,-28,3,23,-38,29,54,43,-44,-51,-127,-3,40,-1,1,59,25,9,-48,125,-19,-36,-74,-27,-30,63,2,-22,-20,18,18,56,70,-2,-59,-25,30,2,27,-3,-26,-34,-35,78,-31, 
  /* [58][0][][] */ 5,-1,0,-16,-58,46,-85,-21,-23,-13,29,-59,-21,16,-23,-18,28,-108,11,-6,-52,127,-22,-23,18,61,-48,13,14,14,-10,52,51,-90,-78,-46,-107,110,-54,46,51,-48,-8,46,16,-3,-31,-53,62,-72,-30,25,33,2,26,-89,-16,-5,5,56,109,7,33,42, 
  /* [59][0][][] */ -14,52,-8,63,8,1,12,2,-99,91,-19,-66,33,93,-37,56,-16,-33,40,-127,-18,32,-102,25,-88,100,9,34,26,-30,-24,-27,-30,-57,49,7,-60,-47,30,-1,92,43,87,-50,46,-15,12,-38,-64,-7,-54,18,17,96,35,-6,53,86,-12,-22,48,-17,112,-35, 
  /* [60][0][][] */ -11,-41,-40,-13,-11,-36,-32,-7,-5,-37,-5,-46,-34,-32,77,16,-23,-31,15,-4,41,10,-10,26,27,21,22,127,-70,16,-3,-40,-50,-60,-30,14,-23,-55,88,-1,13,-7,25,-4,20,-31,-1,33,24,7,-7,26,20,1,25,-19,21,38,-10,4,18,-45,7,6, 
  /* [61][0][][] */ 33,-14,-76,11,-47,2,-10,26,-58,-42,-5,-53,-63,81,6,41,13,-10,19,-39,-8,-41,2,-52,8,63,-11,-15,-29,127,-3,3,39,-51,-43,8,8,51,91,-48,21,43,-25,-51,0,18,-34,29,-19,33,14,32,-13,-17,-74,-1,-35,-35,-23,-43,68,18,65,-23, 
  /* [62][0][][] */ -16,-22,34,30,-54,-16,-11,12,4,70,-25,-64,62,28,18,-7,25,33,-16,-28,-26,-8,13,81,53,-10,40,-40,49,-38,-3,41,12,-39,-53,9,24,-3,8,41,-30,-43,-25,13,54,18,31,35,19,20,-1,-48,14,-12,127,5,-67,-106,34,-30,-19,-50,33,18, 
  /* [63][0][][] */ 9,3,-16,10,-3,-4,3,5,50,-4,-10,-1,35,19,-14,-16,-10,-12,0,28,4,42,4,38,22,55,-1,4,-6,-14,-11,25,-33,2,7,-14,-41,1,-6,1,13,26,-27,3,-10,-3,-35,-7,32,-21,-6,-21,-73,6,1,-7,-18,0,65,14,1,2,13,127, 
  /* [64][0][][] */ 8,-20,-31,-38,12,-12,-18,-16,-5,21,0,-51,94,-24,10,-48,-20,-19,-18,4,-20,-33,-26,-31,26,30,-48,-42,-11,-34,53,-4,-4,15,-49,24,-30,-24,27,58,-59,32,-2,-19,-15,22,65,-1,-51,-127,6,-1,-1,-17,25,-2,-8,21,-29,3,29,-34,57,16, 
  /* [65][0][][] */ -127,26,15,-3,9,11,14,-13,-34,28,5,-4,25,-12,-48,14,15,17,-19,-7,-3,-4,4,10,33,9,-13,-9,90,-2,16,16,-22,65,-7,2,-3,-3,-51,2,2,-6,-14,39,-2,-28,13,0,2,-7,-21,-26,-26,12,-44,-11,-18,-101,-19,16,-33,-45,8,18, 
  /* [66][0][][] */ 37,7,73,31,-24,-49,11,-10,36,70,-11,16,-75,6,-26,-51,38,-82,-33,-47,-8,-31,48,-52,68,-1,-41,-30,64,27,71,-4,-94,81,51,48,-15,-46,40,16,-127,72,-12,118,-13,-43,-18,7,-46,-31,-28,13,-37,7,12,-4,-82,33,38,-4,66,-36,-84,1, 
  /* [67][0][][] */ 62,61,-9,-32,19,-50,-4,-49,38,-23,18,-18,30,-8,1,1,14,-65,127,-25,15,4,-42,98,-73,48,7,-28,15,40,9,4,28,-23,-9,13,24,-5,-14,39,43,-25,-22,-46,-82,-54,17,3,16,19,38,-31,1,101,-20,0,5,-70,9,67,35,-64,-3,-21, 
  /* [68][0][][] */ 51,-12,48,-20,47,-16,65,-105,88,24,49,-15,91,71,37,51,2,65,40,-58,-81,-120,-23,41,48,-19,-85,-11,42,4,68,-1,49,23,79,116,31,-49,-35,13,23,-79,-36,-26,33,-11,66,2,-127,64,-17,-46,-41,-61,-32,-40,-2,71,-70,14,-62,-4,-1,-25, 
  /* [69][0][][] */ 30,-5,67,9,1,-9,16,31,-41,-8,-9,-21,-122,-73,-3,116,-15,-3,-2,25,10,22,-118,34,-27,-50,-59,3,63,25,-9,-15,-38,-3,-17,-4,17,-3,36,-113,-55,-36,82,-10,2,-24,-20,-26,-28,34,-13,39,1,-51,-28,12,96,-25,51,-47,-127,-57,-97,67, 
  /* [70][0][][] */ -3,57,-13,73,35,70,76,14,28,35,24,-26,-17,-27,127,-5,39,-32,35,6,-3,7,17,-64,75,-18,-3,-4,14,2,16,5,-72,3,46,15,-10,-12,-52,-9,-7,60,-87,7,-37,-16,-54,3,22,-5,0,2,-2,-45,-10,33,-40,-41,5,-81,-56,17,3,36, 
  /* [71][0][][] */ 11,-42,82,35,6,-13,-1,9,3,29,15,49,126,-39,34,-22,27,44,-26,19,-39,11,-40,127,63,2,-38,-69,-34,76,-47,86,-59,29,23,46,18,21,7,-60,74,-18,-25,-93,-25,64,24,-32,34,23,7,-47,15,109,-88,76,-45,-24,-53,18,31,18,-48,-30, 
  /* [72][0][][] */ 12,6,14,-4,20,88,-3,-14,18,12,127,18,-30,-47,-9,35,1,53,-26,-38,12,-21,-69,-11,6,13,10,-5,16,2,4,2,15,7,-27,-4,-1,4,0,-66,-52,20,103,-22,-9,21,-25,20,24,6,30,-33,-15,-18,26,-1,9,-45,-84,-48,37,14,-8,-6, 
  /* [73][0][][] */ 1,-6,-33,-10,9,-11,-15,-2,34,-28,21,-37,-48,18,-35,-59,20,-9,-8,-38,-4,3,-12,8,7,35,-16,1,38,23,-2,-17,-52,-9,-5,45,-8,-44,127,5,-5,50,-31,-38,40,36,-58,80,-74,-26,-25,22,-13,40,-15,-17,70,-92,-30,-65,8,-2,13,-17, 
  /* [74][0][][] */ 20,58,127,18,12,77,-5,13,-32,-19,-69,-117,9,-52,-8,-49,24,-18,14,-85,17,-27,82,-83,11,0,24,-25,-16,-80,4,-62,-14,-16,45,1,-43,-16,7,27,32,-8,-25,9,-17,-6,-36,-16,102,-1,37,18,-10,-11,85,-14,29,-14,4,6,33,27,-89,29, 
  /* [75][0][][] */ -14,-16,10,-1,-12,-37,-9,-9,27,-55,121,-45,-61,12,-30,1,15,51,0,-9,15,17,-63,2,37,16,5,14,68,1,-20,19,-36,19,0,12,-19,9,-33,-76,-84,11,127,30,-19,2,-39,6,25,-31,-26,-46,-8,-68,47,43,44,-38,2,-20,-36,-53,-40,-29, 
  /* [76][0][][] */ 2,1,-116,-8,-1,-13,-1,-8,13,-3,5,110,-15,28,-7,14,23,10,17,-3,-8,54,3,24,0,-6,19,4,14,8,10,-33,-46,9,-14,-2,-4,13,-9,10,-10,5,2,-17,24,-3,-12,-20,-11,11,-127,1,-7,9,-9,10,6,9,-2,7,10,10,29,-4, 
  /* [77][0][][] */ 8,-13,20,-1,4,6,2,-43,-21,-9,-32,-21,31,-13,-5,-24,28,-1,-20,17,-30,37,-34,-4,8,-2,-3,-30,-4,35,4,-14,12,12,-22,16,17,9,-32,6,-5,-12,38,30,-8,16,35,-28,-30,-12,-1,-8,127,48,17,-6,21,42,-43,-9,-66,-14,12,-58, 
  /* [78][0][][] */ -9,-4,-14,9,15,-38,9,-56,-9,45,91,10,-26,-14,-10,6,-19,29,-27,127,-13,-51,2,52,-15,-4,26,-20,19,32,36,-32,47,-2,-4,10,67,-50,-5,-2,-6,15,50,3,-5,1,-21,1,-20,-6,35,45,69,-29,46,2,1,4,-51,-2,-13,13,-41,29, 
  /* [79][0][][] */ 6,-7,6,-6,1,-5,-3,-2,-32,10,-11,9,-8,127,7,-3,2,5,11,-9,3,-7,3,5,-4,-1,-1,8,-3,12,-22,-8,-8,-1,-9,-3,8,7,7,-5,4,-14,5,-2,-2,6,-4,1,6,4,10,-4,-4,5,5,2,7,8,7,17,0,-5,-8,-7, 
  /* [80][0][][] */ -4,15,22,-20,-9,-3,19,-35,56,64,-2,-9,-28,8,2,22,0,-5,25,-24,-61,-35,50,40,-42,50,-46,-17,-1,15,35,-39,4,-16,-15,25,-62,44,3,-6,22,32,-19,98,5,96,64,17,-1,-33,-6,127,-16,-56,-56,16,-23,57,-45,-5,-22,10,-65,20, 
  /* [81][0][][] */ 4,-4,9,-20,23,-4,0,34,-18,10,57,59,61,-1,3,-20,17,18,-16,-67,14,-52,-23,-4,-13,-33,11,-21,14,20,37,-50,-1,4,-15,13,-41,-7,40,23,-28,24,65,0,-22,35,-11,52,-21,-6,32,-44,44,-11,29,-2,-32,-17,23,27,49,10,-3,127, 
  /* [82][0][][] */ 1,80,78,-6,13,-61,25,-10,-48,-83,24,-48,10,-12,-49,25,-18,-46,-4,-16,-4,77,16,72,15,-22,-127,-33,-43,-98,66,47,-24,29,34,15,21,1,123,-34,-48,-4,-33,59,-34,41,79,21,31,-32,-126,67,-31,-90,43,1,-15,-43,15,-124,-15,51,-11,10, 
  /* [83][0][][] */ -20,0,6,3,2,-5,14,3,26,-23,-36,-17,-27,15,32,127,72,44,-13,39,13,-15,-105,92,24,7,18,-32,-5,22,-27,28,65,-24,11,-10,-37,-12,-93,-112,-95,-15,46,52,-7,18,3,-69,9,7,16,-5,7,14,-76,30,42,-25,38,-104,20,-34,-27,37, 
  /* [84][0][][] */ -25,-16,-28,22,17,5,11,2,33,-22,-7,-16,-3,-13,12,-29,17,-7,-26,-10,-20,5,-12,29,20,21,28,6,0,-127,21,-9,-22,33,-10,-31,43,-18,7,-33,-5,-39,-13,12,-23,103,12,21,42,8,20,34,24,10,-25,10,8,-23,-4,-33,-26,14,7,-9, 
  /* [85][0][][] */ -10,17,0,35,10,9,21,7,-86,-30,-2,-5,56,55,-39,60,-9,-20,34,2,1,48,45,-40,-46,-52,-64,-22,39,127,-7,6,-16,-11,20,50,6,-41,90,9,35,67,-2,-12,-12,-26,-22,4,-71,40,-17,18,-46,-29,85,-2,-51,-49,85,57,29,104,-47,49, 
  /* [86][0][][] */ 26,12,103,41,-6,7,-13,-27,-47,17,21,18,33,102,-43,-3,16,-2,-19,-9,-11,43,-49,-63,-55,-36,-8,3,-22,104,-127,-6,-16,-48,7,40,-10,-3,10,47,31,35,8,-9,-23,-38,-46,1,-42,-25,-53,-5,-23,-2,-9,-5,-44,1,-2,85,-4,15,-15,-18, 
  /* [87][0][][] */ 127,26,15,14,-2,0,7,9,-27,-19,-7,-1,-32,-28,-1,-95,-32,-4,-21,3,-14,-27,-42,-2,-11,-25,-25,-11,-37,30,90,-24,-6,-28,13,12,9,-21,-63,-110,14,58,-15,11,14,-23,-2,-17,19,-11,-14,-14,32,3,22,-10,-27,17,-29,-52,22,3,21,-35, 
  /* [88][0][][] */ 5,12,33,43,13,-10,-3,-3,-29,-21,-17,32,-4,-15,-42,14,-20,12,15,-35,18,-12,11,1,-24,-29,-6,11,7,7,12,74,-65,-14,37,-53,0,-17,-28,-46,11,-66,-31,28,-42,15,-14,-29,-5,-1,-4,-8,-10,-15,9,49,-41,-18,11,26,3,127,18,-4, 
  /* [89][0][][] */ 4,2,-54,-16,5,-8,3,-1,58,20,-21,-11,-46,9,10,-66,12,-10,2,-1,5,-6,-21,55,14,8,38,61,-10,-127,13,-17,7,36,-42,-29,4,13,-22,-28,2,-36,5,-55,20,33,11,-5,80,6,20,43,27,17,-82,20,-13,-10,-50,-47,-16,0,49,-15, 
  /* [90][0][][] */ 13,56,-9,-8,58,61,103,-1,-29,116,10,72,74,22,9,42,97,23,4,-15,-12,-5,-2,-43,18,-46,46,-67,11,-7,-26,-13,23,5,20,53,19,-80,-15,10,37,-72,19,59,4,31,67,47,-8,31,91,40,-79,-39,22,-35,12,-33,15,-49,-62,7,17,-127, 
  /* [91][0][][] */ 43,30,10,19,10,-16,-22,-51,29,-43,46,54,20,-122,-127,36,-52,-3,-1,-18,-9,-7,41,24,-7,17,32,21,18,-6,6,94,-19,67,0,37,-2,-27,-67,-51,-46,45,-34,41,1,-50,-75,-15,47,-29,-9,-13,29,60,16,71,50,44,-29,18,35,-45,60,0, 
  /* [92][0][][] */ -2,-50,24,19,6,-29,-1,-25,10,-14,-4,9,8,-20,32,4,7,-17,9,-36,4,-10,-2,32,-19,10,-10,-10,18,7,38,42,-87,-23,-11,-13,10,5,-18,7,-15,37,-22,-20,-52,26,6,4,-19,-1,9,12,-28,18,-13,127,5,-4,1,7,27,19,50,-28, 
  /* [93][0][][] */ 0,-2,-20,-2,-2,5,-5,-2,-51,4,-3,50,-7,127,-10,-8,-7,-5,2,-8,-9,19,1,17,0,12,1,20,-4,56,-35,-10,-2,6,4,-2,-2,-6,15,-17,21,-4,3,-5,21,-6,-6,-10,29,-1,-20,-3,-16,-4,1,9,6,6,-6,20,-17,-7,-21,6, 
  /* [94][0][][] */ 35,6,-45,11,-2,-18,-3,14,103,31,-2,-10,-24,-108,15,40,27,-4,-13,11,1,-4,2,-3,9,0,0,-10,20,-127,83,18,-25,14,0,-27,-4,-4,-23,39,-14,-59,-15,26,-5,14,-7,-16,-4,-2,-52,1,23,-29,-16,20,6,50,7,5,2,22,15,-6, 
  /* [95][0][][] */ -9,4,16,-2,5,-2,5,1,-73,-14,4,14,7,127,-18,-23,-9,5,-3,4,-5,20,-5,-4,-7,7,2,6,-19,68,-38,-16,-10,-17,-2,15,-2,-7,6,-1,11,1,0,-11,8,-2,2,-3,-19,6,-12,-3,-13,3,5,-2,-23,-24,-7,27,-6,-6,6,-8, 
  /* [96][0][][] */ 15,-3,-29,-44,20,21,8,14,-23,-12,14,34,-39,-18,20,-30,30,1,-5,-30,20,-19,-13,23,-5,-53,-17,-12,47,-30,4,34,24,-36,-38,-14,10,15,27,-58,4,4,-30,-7,-23,21,-55,0,127,17,27,-27,23,27,-14,-8,-62,44,-22,35,-112,-20,41,-16, 
  /* [97][0][][] */ -15,-8,3,-13,75,-26,29,-59,-17,0,27,-35,19,34,23,13,23,-28,8,-21,-20,-16,-32,-8,-59,5,-29,2,13,13,37,-56,25,-10,49,-39,32,-127,-37,37,2,-53,-27,-36,35,12,11,-2,-28,32,12,-4,-8,-14,-67,40,22,-2,-38,-93,43,22,-1,13, 
  /* [98][0][][] */ 24,3,127,-57,55,42,62,-43,-62,16,-84,119,10,20,-61,-26,91,91,6,72,10,40,23,-62,16,10,96,-41,55,-2,18,7,-43,-17,75,21,0,-57,-45,36,89,-120,4,-48,-84,16,68,36,-72,48,25,43,8,94,35,55,67,-3,-19,-61,16,-72,-16,56, 
  /* [99][0][][] */ -49,-8,-33,9,10,7,-1,4,8,-78,15,23,11,6,-36,-32,0,16,-9,11,9,50,-33,-4,-23,15,-22,-90,45,-35,-18,-59,64,-72,60,-40,-23,-22,-25,-8,5,28,6,52,-12,3,-19,32,-10,6,13,-21,8,-93,48,46,-29,27,46,127,-76,-35,46,12, 
  /* [100][0][][] */ -12,0,-17,-19,-27,18,-18,-7,-48,-127,-56,-111,-57,17,-23,-32,41,13,13,-5,33,3,26,84,-73,33,-1,6,15,-23,-1,-67,-20,-11,-19,111,46,27,-84,-21,-22,-83,74,19,-12,-50,-32,74,74,-9,-5,-18,40,-45,39,-5,56,62,-81,46,-17,-19,-62,-4, 
  /* [101][0][][] */ 1,3,-38,9,20,-9,20,0,22,9,22,-31,58,-9,-14,-31,-24,-11,7,33,-7,46,-1,2,3,37,1,17,-15,-6,14,27,-21,-2,12,-14,-22,15,2,2,36,25,-80,-12,-14,-20,-45,-18,39,-28,-6,-16,-64,-13,0,-21,16,-20,37,6,-3,-2,24,127, 
  /* [102][0][][] */ -13,-3,47,-12,18,29,10,64,-4,-11,17,-5,-56,-28,9,-10,-48,21,62,-30,6,-53,-30,44,30,4,-28,-42,-36,49,22,1,47,20,24,-8,-38,-24,27,9,43,-78,13,-36,66,-52,-53,-79,31,-13,-82,44,-8,-17,-34,127,-22,4,16,-16,-44,-1,-51,10, 
  /* [103][0][][] */ -30,8,-12,-34,13,-33,27,-53,22,-61,24,-13,-9,-59,-15,-5,-32,127,-61,-8,19,-31,44,53,24,68,26,43,-37,27,20,-25,99,92,31,3,69,15,-65,-9,73,3,1,-12,-7,-53,10,42,105,3,-38,-24,-27,-7,-115,6,-10,92,-83,75,26,54,-19,-73, 
  /* [104][0][][] */ 2,16,39,-5,-4,-42,30,-44,13,10,-21,45,1,-2,36,54,-17,67,-49,94,-3,-116,-49,47,13,5,17,-17,11,-26,33,-12,-114,3,23,4,94,-63,14,30,-43,7,70,-4,19,-31,3,-13,-127,-32,11,-14,-8,15,15,-14,-2,-12,-67,-3,-53,-11,20,0, 
  /* [105][0][][] */ 52,6,-2,10,-3,-23,9,16,-30,-4,16,11,-1,16,5,26,-36,-9,-1,-43,9,-26,9,24,-3,7,9,8,1,11,5,-10,17,0,-9,4,31,-15,8,2,7,33,-20,-12,-10,5,-17,-17,-35,-3,-5,23,127,-21,-18,6,7,12,14,8,-39,1,-25,51, 
  /* [106][0][][] */ 46,52,88,-11,1,-27,-14,-26,-13,-7,37,-22,-18,-5,-11,-125,-15,-67,77,68,-20,-5,-29,-82,-49,48,127,-64,-49,27,43,36,-35,-13,51,23,-52,29,80,46,8,-54,52,0,70,52,-8,-10,13,-8,6,60,-20,25,-6,-26,13,32,16,13,12,112,1,-14, 
